{
  "weights": {
    "layer1": [
      [
        1.8255353163202648,
        0.22286050270905808,
        -0.7043916145430259,
        0.7017407456732463,
        -0.32090872062952963,
        0.3002545116552758,
        -0.07186883761950269,
        0.9664438765705603,
        0.30529085959207986
      ],
      [
        0.13527645518125136,
        -1.2880955240432403,
        -0.332626076359396,
        -0.5660881645414568,
        0.3011555504268489,
        1.445797891791164,
        1.049295397866217,
        0.11670098951611799,
        -1.0352282565557718
      ],
      [
        -0.9171810780757241,
        1.2354691256346622,
        -1.1389367246899444,
        -0.7128969335458389,
        0.4108516893025998,
        0.8610780990888665,
        -1.5817930038578611,
        1.1815710813722742,
        1.7763154916005792
      ],
      [
        2.3010024690390525,
        -0.6241110365384952,
        0.08973655433916192,
        0.12690816458661522,
        -0.12669470138420005,
        1.8467840090846077,
        -0.7701250659479554,
        0.22454421300433688,
        0.7055986778051738
      ],
      [
        -0.4659832405257871,
        0.15395431677361038,
        0.16473202049740085,
        -0.40254260838926353,
        1.8062265974869682,
        0.6750872111925925,
        0.7030459120715612,
        1.8785902564857333,
        0.2857956128120561
      ],
      [
        0.25857450900185197,
        -1.1579263441879244,
        0.72615261202221,
        -0.13445344824094446,
        2.1711201042333665,
        1.2091803632617464,
        -0.5157312357628445,
        1.1001328396917747,
        -0.9994889633394941
      ],
      [
        0.5257953294639856,
        -0.05351235902192565,
        1.0323502928097255,
        -1.6349087081435227,
        -0.9926889217829354,
        0.3146023503986599,
        -2.89923321261975,
        1.2163068659085563,
        1.7376874461170015
      ],
      [
        0.3537829022740656,
        0.6813200429520773,
        0.6372357570139875,
        -2.305348066050354,
        -1.1135040850179168,
        -0.9676301106171805,
        0.3733667733479599,
        2.147979403146424,
        0.5048500738754306
      ],
      [
        0.17903039564977338,
        -0.40192301687627296,
        -1.300323920704048,
        0.29775356108576556,
        0.6748618238650701,
        -0.2704742183458015,
        -2.5240357188518514,
        0.3259833659739389,
        0.7592580020615693
      ],
      [
        0.9727860089592273,
        -2.643697504862422,
        -0.7441627986778901,
        0.5634573094878577,
        0.9584322263142165,
        0.413815945497232,
        -1.7345351435517846,
        -0.8802414947782086,
        -1.7932290815500587
      ],
      [
        0.5071658074711549,
        -0.9081003302152608,
        -0.6979639913725779,
        -0.4526932307607583,
        0.45077647347270094,
        -0.5844397024785409,
        -0.724912359438169,
        -1.9815238518547333,
        -0.7428369117531886
      ],
      [
        -1.766302409018757,
        -1.440313761358863,
        -1.2313531888735454,
        1.0447302061683423,
        -0.6193627308768739,
        -1.9245532703088644,
        -0.9427794355645207,
        1.4386928061750792,
        0.3342685213777634
      ],
      [
        0.5810831300138554,
        0.8242655438974097,
        -1.9697244635399151,
        -1.2663519577987365,
        0.34503504725361445,
        -1.3751084481727296,
        0.1229173198687194,
        -0.15559892965664646,
        -0.7148760147210572
      ],
      [
        -0.9808072775336532,
        -2.739477646109278,
        -0.6024823008333214,
        -0.643223709006702,
        1.1005017736252605,
        0.23827149905535355,
        -0.20822753356138837,
        1.1483445935213088,
        2.0084827613540712
      ],
      [
        -1.494369139770725,
        1.0704913574505226,
        -1.2776373375513057,
        -0.565646883349888,
        -0.08407196262610364,
        0.6863325020946054,
        -0.8793485912486476,
        0.5784795545931909,
        0.18101448031762038
      ],
      [
        -0.1204730024763531,
        0.8701846628748677,
        1.666466332960265,
        0.8277981956087512,
        -1.126768936926787,
        0.30979374064869,
        0.8618830486417516,
        -1.8271390081569119,
        -0.22021318433699805
      ],
      [
        0.5573214546028079,
        -0.3677373831538569,
        -0.9818576878567696,
        -0.7151535630484187,
        0.9924449431367959,
        0.5173088328233143,
        0.47799922992615523,
        0.23609686251031278,
        -0.08302159538520137
      ],
      [
        -0.8199439154402643,
        -1.0996471940638473,
        0.7757359718835317,
        0.8128772261083005,
        0.8008348316000979,
        1.3730527239631931,
        -1.0828983359330657,
        0.6934275029050011,
        -1.6242609288280885
      ]
    ],
    "layer2": [
      [
        -0.3261254463103631,
        -0.31121902956452696,
        0.5827524156990408,
        1.120681813610024,
        -0.12655061008461477,
        0.6652164065258765,
        -2.7416556731557784,
        2.087509297101598,
        1.0903413203653651,
        0.5352422447833753,
        2.2184397052861238,
        2.048464037830094,
        -0.8333969693355636,
        -0.821472384345881,
        1.30972657427576,
        0.0013147807643353483,
        -0.3116348179920898,
        -0.5788275073113125
      ],
      [
        -0.6580839736194062,
        -0.23825208339598491,
        -0.4816085282165853,
        0.43419281502322926,
        -0.7050681014706305,
        0.7493019498855997,
        -1.3905389222985194,
        -0.15776569794702086,
        1.5896899288128123,
        -1.1088029357272853,
        -1.4411166926846122,
        -0.40327929321585154,
        0.87752444393755,
        0.9963876872974586,
        -0.2876728166540429,
        0.21483156767210945,
        -0.9063906416412375,
        -0.5132680203445042
      ],
      [
        0.8488455118423381,
        1.1143189481518867,
        0.3991739119420569,
        0.7617511430928663,
        1.3212070004246304,
        -0.3112183161969946,
        -0.20702073932581738,
        2.358466168339213,
        0.017565794010214127,
        -0.9953239985863725,
        -0.017843274114842277,
        -1.5762854310162384,
        0.3369012137124059,
        -2.0459318215990705,
        -1.084656556925047,
        -0.19168198375515674,
        1.227272307154855,
        1.4798922835168202
      ],
      [
        -1.3236101321182125,
        0.2239212125341603,
        0.5406091697431692,
        -0.23939308206274187,
        0.5180907254155228,
        -2.486109669591974,
        -0.5195580097244019,
        -1.4882659024904732,
        0.9175332947218151,
        0.6536407749771715,
        0.037743496706476316,
        0.05413183279081644,
        1.1221013099450166,
        0.37170856195595253,
        -0.770092896547776,
        1.551674052313862,
        -0.6255994065050304,
        -0.14496983148193107
      ],
      [
        2.2265265712267523,
        1.140463503458417,
        -0.8569735199974524,
        -0.23607974794494377,
        -1.3102938584631332,
        -0.11525959884158411,
        -0.8929623855203916,
        -0.33540202976953093,
        0.26958669805167085,
        -0.6457517095975401,
        -0.3840618091073511,
        0.33447745590431077,
        1.5409392087042857,
        -0.5440999488575958,
        -1.4303696863321687,
        -0.5508164563546497,
        -1.226048371665492,
        0.17268981955678353
      ],
      [
        0.380508136497107,
        -0.2544971742052759,
        0.3204983344771126,
        0.22150797661017674,
        -0.0018343780434175283,
        1.1477413565774854,
        1.341974737520653,
        0.881679703141794,
        1.6385045918216612,
        1.844853831765961,
        0.9369624685284808,
        -0.33288714488982674,
        -1.2439899590264252,
        -0.5268873898043054,
        0.12217288367211711,
        0.4984796810474909,
        -0.5945388685791919,
        0.10570890960895478
      ],
      [
        -0.31441545140028915,
        0.32532349441837927,
        -0.48680455147435703,
        -0.8993048299181795,
        0.045776250543617183,
        0.15235012396209727,
        0.1172937146238045,
        0.7651670211879207,
        -0.5335928798653149,
        -1.3274226065359385,
        0.7429346334632486,
        0.2661799992396138,
        1.9624328272069904,
        -0.26565679837592227,
        1.6914163097709711,
        1.5607155105625972,
        -0.47813139201815497,
        -1.1267035267969063
      ],
      [
        1.5075195690292649,
        -0.5397045164041068,
        0.5889464733367974,
        -0.6236317071463449,
        0.06623956088799943,
        0.8200984133389548,
        -1.0376263788166729,
        1.7206692451308319,
        0.37590457725685317,
        -0.3182842400993038,
        0.7204670423795292,
        0.3291674895450272,
        0.2412047597671193,
        0.5340254095001242,
        -1.596572460021874,
        0.8086726824256948,
        2.186982190991593,
        -1.3027315825683228
      ],
      [
        1.7207898388859884,
        0.32380441281964206,
        -2.0574589890099833,
        -1.6320672527394762,
        0.6329953966923095,
        0.9971853416865543,
        1.5513686983867077,
        -0.8452470180581484,
        -0.3928536901614548,
        0.2722199527983514,
        -0.5508582884840101,
        2.0337338296752403,
        1.8139095331499506,
        1.5550589634694258,
        0.1861581822175944,
        -2.0301317295764068,
        -0.2727851013547249,
        -0.07470296269584098
      ],
      [
        0.8399414859507687,
        1.3544887331356712,
        0.05867414729226024,
        1.013981071842905,
        -1.6385332773004022,
        -0.4907268325136347,
        -0.6970321041639392,
        -0.5878618530969856,
        0.30224024578878633,
        -2.1029509884901496,
        -1.9386465889007494,
        -0.8713030232367801,
        -1.3320657877147846,
        0.3346615793038402,
        0.0836441537471616,
        -0.9202426610605742,
        1.105402462070775,
        0.5445617350809646
      ],
      [
        0.9285687862865649,
        -0.055850451323374725,
        1.1291907454451422,
        0.4570765725715838,
        0.40658171806437987,
        0.6170778684689385,
        -0.011524640115390197,
        0.11978678746880592,
        -0.26119008725181814,
        -0.5507909599318748,
        0.455909741946414,
        -1.2147909053656787,
        0.7416118752116765,
        -1.8892932176247004,
        0.9768005225938025,
        -0.21545659199030628,
        0.11130227425774061,
        -0.5946464527554514
      ],
      [
        1.3805198576365674,
        -0.44792195999928525,
        -0.010330877259050386,
        -0.5270987296785911,
        0.46955531541849654,
        0.5816842322007687,
        1.191652999832112,
        0.5429355681548764,
        -0.6492285754148454,
        -3.0531137785763502,
        0.5582181238283023,
        -1.1259126206962626,
        1.1406809581173394,
        0.9055565560958095,
        -0.3104854559825018,
        -0.24069341749523313,
        0.06029725259119048,
        0.144005795516481
      ],
      [
        -1.1635033738973786,
        -1.661722893320835,
        1.7009538622140592,
        -1.05647610146315,
        1.7291221927268925,
        -1.1292037302656603,
        0.07223980229352772,
        -1.4250717161431048,
        -0.13951157529278857,
        1.0679758868458669,
        0.7287491895881822,
        -0.36486640274660415,
        -0.997030793491777,
        -1.0701681267877634,
        1.4979890195679468,
        0.23731178862627822,
        -1.2014636173483764,
        -1.3445154686894707
      ],
      [
        -1.3753011390288288,
        -0.45274475454580054,
        -0.5306071934262157,
        -0.5094982749101502,
        -1.315845823151478,
        0.9899755611732208,
        -0.6463087784883861,
        -0.7245844891101243,
        -0.4097315525880068,
        0.2341318500874207,
        -1.3649729085343254,
        0.5867039116189862,
        -1.280861794999598,
        1.2538881392479153,
        1.4457683208414143,
        -1.0231140294343972,
        -0.2237559824134673,
        0.3582169698225851
      ],
      [
        0.9641472622811782,
        0.6550366035074737,
        -1.4111593783137206,
        0.30336308157253217,
        1.9292506827432558,
        0.035600838792818744,
        -0.6650451126753018,
        1.5658746899915381,
        -0.35846811014137786,
        -0.062307287742857695,
        -0.36892849292079244,
        0.8036994343463073,
        -0.239057832447653,
        -0.2567259599155873,
        0.061129508821711614,
        -0.49031238426820695,
        0.5404915781767053,
        -1.487001605330675
      ],
      [
        -1.3570889904035752,
        0.5243917710071279,
        -1.2721255503495958,
        -0.97911261381895,
        1.4265071132575697,
        0.6618748893505447,
        0.8299046087744351,
        -1.8705961855175204,
        0.783744972821385,
        1.4237980429692718,
        -0.49245390204536194,
        0.8698706174002849,
        0.3576717930555333,
        -1.4103919077696134,
        -0.35457405023292476,
        0.6322652786052292,
        0.8613522428788486,
        0.9541393676132345
      ],
      [
        -0.8940339715164907,
        1.195002541897994,
        -1.1247072461730925,
        -1.266580066264351,
        1.669830532515107,
        -0.1985288459381937,
        0.6719674366518739,
        -0.40517897250734847,
        2.056186752529649,
        -0.7986697125964872,
        -0.7732987775355397,
        0.22763760455029453,
        0.16342705333245847,
        -0.3986686734170069,
        1.443853933180882,
        -0.21774547291099128,
        0.5484566907846378,
        -0.35305602148020115
      ],
      [
        -0.8108322417241226,
        -0.03404318711636081,
        -0.43178452202233003,
        -1.4355061524144097,
        -0.7466373248022695,
        -0.5197283979731258,
        -0.7688956728285342,
        -1.122696627022114,
        -0.4704291390662736,
        1.6374385347121965,
        -1.2511092701557032,
        0.2566559073302664,
        0.1096477581649812,
        -0.28238480713432207,
        0.688127502077227,
        0.09639117001183618,
        -0.14684081705478252,
        -0.08251774264537115
      ],
      [
        -0.789324977471334,
        -0.29172988683272977,
        -0.07835218818633162,
        0.26243530272124926,
        0.6772998635216428,
        -1.1173405993915628,
        -0.6697269311248493,
        0.7723973469944462,
        1.5425521477607516,
        -1.1169383145978422,
        2.251551685696438,
        0.5123916808597588,
        0.51200859020382,
        -1.5039537939675973,
        1.0399858138197027,
        1.6177680102216865,
        -1.1053457069779,
        -0.15235951059284797
      ],
      [
        0.4803254297247619,
        1.8978150092873058,
        0.06434074891553723,
        2.4391990834074777,
        2.326797373613875,
        1.1166079217902711,
        -0.8599037474375772,
        -1.3442174357780303,
        0.2285839277114092,
        -0.6714465068485933,
        -0.7124979718244195,
        0.7718279559077753,
        -0.685877816942528,
        -0.6349616863333962,
        0.1884623672334584,
        0.505899274947603,
        0.6974564512201143,
        -0.9212824401396773
      ],
      [
        -1.2845775012295384,
        0.5698182285939298,
        -0.2686691269488817,
        0.6922487374081949,
        0.21878849691226365,
        0.8300409781971732,
        0.4676491229182303,
        -0.4419264836487915,
        0.26729075985889583,
        0.5078102307080816,
        0.5982280476169562,
        1.0648804302996702,
        -0.03899637658117507,
        -0.43069843631261984,
        -0.9194961574962817,
        0.9202652899829119,
        -0.49182634955401544,
        2.6267185908820254
      ],
      [
        2.013153897515189,
        0.4577253158939267,
        -0.706114356409048,
        -1.1444539017022197,
        -0.7164981414252761,
        0.9301302662096358,
        0.6758740920824355,
        -0.21253826833808984,
        0.3763160596045451,
        -0.6319518950983367,
        -0.43161820867049405,
        0.05330092652928613,
        0.49259271739802396,
        -0.27337252957960234,
        -2.655543418985805,
        0.1780074894185158,
        1.2218567940926364,
        -1.6608363691162176
      ],
      [
        -0.5141468581026117,
        1.927708543531081,
        -0.32240109475868284,
        -0.23275242737733987,
        -0.04437084280219788,
        0.5663615870709926,
        0.16691387304939992,
        0.5174262760949546,
        -1.5743857649713926,
        2.083219389395947,
        2.4438520421530177,
        -2.7508006505533973,
        0.18296339469221293,
        -1.1014367018419637,
        0.60001313256565,
        0.2836703782538911,
        0.9285131328719117,
        -0.6036398043457022
      ],
      [
        -0.32209194697844973,
        -0.7011110209269557,
        1.6641234162473117,
        0.3327169307076189,
        -0.57103081214053,
        -0.5664077922545144,
        -1.3143070455953734,
        0.6741852177552538,
        0.44965317210924,
        0.17889916810874873,
        -0.0675714576571359,
        0.958556618623366,
        1.36827268716459,
        -0.30940909203996664,
        -1.0040685818438124,
        1.0782646238858102,
        1.0061820052144292,
        -0.044409206325211135
      ],
      [
        0.30656372706991536,
        0.4937625563773762,
        -0.22134993629816546,
        -0.5641040398616362,
        -1.223507636296397,
        0.7345640870921635,
        -1.670442623243797,
        -1.1084847247001608,
        -0.04150946342765725,
        -1.1724061337793217,
        -0.3195662512918298,
        0.10030644418061099,
        1.2137165390480804,
        -0.2370345445459511,
        -0.48267195721560213,
        0.3755122892123464,
        1.3544769057733246,
        -0.4135761031337655
      ],
      [
        1.3884122261433456,
        -0.6151924751908926,
        -0.9617871337857626,
        -0.13404704773619613,
        -0.1820616454597288,
        0.07823364675976674,
        -0.5491272229048103,
        1.8899932281173304,
        1.81152815550616,
        0.19918752314746976,
        -1.3617080715988596,
        -0.5845021969706088,
        0.43302252983604245,
        0.002144846689327641,
        -1.6444174993641614,
        0.043130099597821964,
        -0.39888774348587996,
        -3.4281117451940295
      ],
      [
        0.9776808667431228,
        -1.6929459320061304,
        0.8308920462080824,
        -0.9540100812804123,
        0.31020022184089785,
        1.2648269747603884,
        -0.1525320414797908,
        2.187009610207614,
        0.07055268688697838,
        -0.7914014937832873,
        1.4702711078905988,
        -0.7614612396965426,
        0.9671634240288048,
        0.33523516081186167,
        -0.25926322807232316,
        -0.09579129341149983,
        0.2636135218636994,
        0.022094774178470458
      ],
      [
        -0.754049234020028,
        -0.3227530864851435,
        -2.056132557493874,
        0.032339339303418854,
        0.3030248852684221,
        1.2687925538962073,
        -0.19894442877442686,
        0.5324907656851592,
        0.540419080114055,
        0.34513588917838883,
        0.8374004675376979,
        -0.10434249170636258,
        -0.6625926195958564,
        -0.24811708746887906,
        0.9960660110078228,
        -0.7786252633800731,
        1.2618284162515732,
        0.27490517877993753
      ],
      [
        -0.848364583551789,
        0.06322617708077577,
        0.7218148039510299,
        0.8327065584582252,
        0.8561890765682934,
        -1.2643430658296606,
        -1.334582141103058,
        -1.0505531762729323,
        -0.14938747333813082,
        0.007979016498301543,
        0.4499768594437806,
        0.6735825032627429,
        0.15017509551134164,
        0.7118093831938705,
        -0.36842399762372074,
        1.7909142791830206,
        0.742586858419046,
        -0.2787026673968578
      ],
      [
        1.3988551240566902,
        0.41365040086383,
        0.001425703780471701,
        1.8303029368205197,
        -0.012910715672131184,
        -0.42812612169228603,
        -0.7888759943241438,
        0.41481690112335523,
        0.05783817454418022,
        -0.4241499739691414,
        0.20747961557560254,
        0.8758503903195217,
        0.35910734486844914,
        -0.716790739263119,
        0.3789904701753267,
        0.5562957148024648,
        -1.619170827029991,
        -1.3765236035911654
      ],
      [
        -0.41114877377641096,
        0.657390395282764,
        1.7046249171660046,
        0.5645233198847054,
        -0.5280951787352546,
        1.0185606841394421,
        -1.7030930106367264,
        -0.7431694062704504,
        1.3021899269762858,
        -1.138776619288201,
        0.5244232187016907,
        -0.6205972351255815,
        1.2751014574405821,
        -0.04462874764754941,
        -1.660509839074184,
        0.2653728521338772,
        -1.6840814080750135,
        0.6142804640810234
      ],
      [
        -1.025416896593707,
        0.013306154978025368,
        -2.027177743783499,
        -1.629192902449546,
        -0.9526228667499559,
        0.2604369116990255,
        0.41377788298781454,
        -0.21121506931779907,
        -0.09164503831494338,
        3.361922920590407,
        -1.09670279361396,
        1.824165740525961,
        -0.5967528779144559,
        0.35584895475204076,
        -0.20019323896177765,
        0.04413077806264366,
        0.15454011464667736,
        0.5376210310097987
      ],
      [
        -1.4157834783931287,
        -0.06123132292713008,
        0.1756219758532195,
        2.0439172885964227,
        0.6339808267327245,
        -2.602114863032076,
        0.8075856694335772,
        2.73292803564467,
        1.1404587625918505,
        0.09918068642638452,
        -1.163606316884516,
        -0.2990311998712116,
        0.2300055937547734,
        -0.8443066411330777,
        1.2912511245228933,
        -1.0405833015521306,
        0.012389391326947824,
        0.1810849285829388
      ],
      [
        0.29313655553587714,
        -1.7822215230311411,
        -0.9206055027732077,
        -0.3408211864104101,
        -0.350157775077429,
        -1.5108433693434389,
        0.42960068519518707,
        -0.8845827967867187,
        0.8658895896387654,
        0.7457584693204025,
        1.6300769311397845,
        0.7675885383022194,
        1.477400595235567,
        0.4733136464237092,
        0.046877249433504964,
        1.671098121708285,
        0.5319267807158446,
        0.3837274336129335
      ],
      [
        0.10263748470596308,
        1.3997795907671347,
        -0.09860271253774126,
        -0.41357721643394657,
        -1.2453203868204314,
        -0.37040235762106904,
        0.3554104908014941,
        -1.6114303156077656,
        -0.35052905696489567,
        -0.1959662069508605,
        0.5716892795984986,
        1.7318704677428731,
        -0.3110792443659312,
        -0.8192681379769697,
        -0.9978338904574564,
        -0.9223979900923304,
        0.025432259201578593,
        -1.2945416626274235
      ],
      [
        0.7275273678638171,
        0.9580737603369855,
        0.4544821437587375,
        -1.109700344945901,
        0.8665628008515021,
        -0.5915410352097312,
        -0.671079433374807,
        0.9325829349486772,
        0.8836074860227047,
        -0.19438729684810344,
        0.4489603115975076,
        -0.3605819259597038,
        -0.21714346569582357,
        0.6697480505899335,
        0.6748140180880935,
        0.5361913758708878,
        -2.037525980312182,
        -0.11528034138379589
      ]
    ],
    "layer3": [
      [
        -0.13471011178149284,
        0.2925917185514758,
        0.7600235654107204,
        0.9595659647521285,
        -0.20501548436795325,
        1.383009130211271,
        -0.38504338862208737,
        0.6768390790456469,
        1.2219793626288578,
        -0.7701232097489542,
        0.06823322148572351,
        -0.1692567125920059,
        0.23120074993510376,
        1.0521695635338328,
        0.5371947255865283,
        1.2479743562822414,
        -0.7287278660572937,
        -0.7089307103616952,
        -0.25115483241507175,
        0.3437733348431518,
        -0.8006617675397529,
        1.9449367101507837,
        0.7791916911414455,
        -2.2023424216031877,
        0.008185340641713605,
        -1.4213036254751552,
        1.0724500703615942,
        0.17414155486612526,
        -0.06293832716853585,
        -0.9777850149530494,
        -1.3152302760753796,
        0.8407370339850411,
        -0.04103703195975544,
        0.7020751065043886,
        0.4392183713386562,
        0.3947226377790289
      ],
      [
        -0.28970875443998306,
        1.1759321463573558,
        -1.3644371627969933,
        -0.13464442146787947,
        -0.758047407598537,
        0.9523427211628122,
        -0.9634174392199375,
        -0.7441568805810093,
        -1.2315163696854292,
        0.25696619578680663,
        0.16769485144147916,
        -0.7236496792240773,
        1.6289226233612888,
        0.6853585046820728,
        1.1216395653035407,
        0.026400867346018275,
        -0.187314206624824,
        -0.5263688020477694,
        0.29182458866469757,
        0.27940551032789296,
        0.5779001383817975,
        0.716184195344738,
        -0.7863539365264611,
        -0.8482769940686581,
        -2.0767969419321592,
        0.7084775182027896,
        -0.36417343432457217,
        0.039038397058050095,
        0.11332313536563728,
        -0.028383621196323157,
        -0.11236904617067338,
        1.3328173059542878,
        1.6873005396543537,
        1.0070891158585908,
        0.059333093272926,
        -1.4610913911689223
      ],
      [
        -1.351736811418384,
        0.3705182121936036,
        0.3398408578425633,
        -2.0184318239662202,
        -1.038273082591187,
        -0.06650275148131621,
        0.7312805195385368,
        0.830383727444154,
        -0.0961070410722992,
        0.2956902553231996,
        -1.185524045459715,
        -1.3218980185201172,
        1.0660783522377726,
        1.4033505710620908,
        1.7533902026367303,
        1.7054917163753445,
        -0.3502885293760887,
        -1.6413497233330638,
        -0.9679138889205746,
        2.551134309723087,
        -1.0593622694674532,
        -0.8004740208964997,
        0.724967394354055,
        0.7000752766045407,
        -1.9151636964259944,
        0.8742424030250394,
        -1.4291343567875119,
        0.6397404400637463,
        -0.6122700481750174,
        -0.49552449416218547,
        0.1938948892133275,
        0.8962958204219216,
        -0.7747919709790622,
        -1.010855259167882,
        0.08625542659074115,
        -0.09137439537038017
      ],
      [
        -0.3855343257457347,
        0.2482652958406619,
        1.2537946243912483,
        -0.9975028109206688,
        -0.17571024049736386,
        -0.2955890694899862,
        -1.1475146773641598,
        -0.5267933152986005,
        -0.7834360119696916,
        0.4640888729562805,
        0.07113910410394608,
        -1.2887865823524713,
        0.785734452530236,
        0.7875299904315965,
        0.0750245046988779,
        -0.5618181373998502,
        -0.8341391458805426,
        1.931770843583149,
        0.38495438667714954,
        0.9893785707073208,
        -1.2363602829701974,
        1.1905700375695856,
        -0.37445102070849234,
        2.098530589531826,
        -0.41534027688636876,
        -0.5137853130616762,
        -0.9714152860212807,
        0.1651622133808616,
        -0.4220433017922871,
        0.0650328000603214,
        0.1472132490472201,
        -1.731665752606665,
        1.9666229536877082,
        0.3822814574614233,
        -0.2188668585002323,
        -0.4429618014888015
      ],
      [
        0.5550242611558946,
        -1.60743458882922,
        1.261962154488325,
        0.568403468244116,
        0.03872784637595683,
        -0.9993021081368277,
        -0.8164824814573821,
        0.4731630340964526,
        0.2429682526370646,
        0.28504670059782966,
        1.7837491313682492,
        0.5972032098878589,
        -0.656520748274149,
        1.8907317700071502,
        0.9321858670621227,
        -1.4323524999193316,
        -0.3892319932453479,
        -1.1712606167786035,
        -0.9783443392999202,
        -0.08141769743043324,
        1.316872399597618,
        0.059212996858631434,
        0.420428219141408,
        0.17224669902142184,
        -0.13404942323601618,
        1.338167541439673,
        1.004638207157395,
        0.37525650412140943,
        0.7523371479042139,
        0.7835618260386717,
        0.4808365845059714,
        1.685283536554983,
        -0.1312943686234392,
        -0.0564049837091336,
        0.29151762136771414,
        -1.3747386109887214
      ],
      [
        0.37359348040909485,
        1.1484673324800643,
        -1.0226005889817829,
        0.9053432495870969,
        0.3087773696584563,
        -0.8856558392276161,
        0.08519596169896868,
        -0.8964178982655335,
        -1.4724896183298137,
        0.9040937701506272,
        0.6320899831076318,
        -1.025271348552031,
        -1.515532818345905,
        0.41551767761130826,
        -0.39343053995180205,
        0.5076912940212176,
        -1.4376513726749525,
        1.6343823445794123,
        0.6628428837021382,
        -0.002271729476748823,
        1.0299554259063934,
        1.1135493573469026,
        -0.8278213916367504,
        0.5725864851186301,
        -1.5255840827684521,
        -1.2172777493394076,
        -0.43694682554923503,
        -1.2750475352105564,
        -0.0024637111062257126,
        0.32254977608533386,
        1.208958697359749,
        0.46385068121262407,
        -2.040522435355744,
        -0.18728649383557736,
        -0.2504792489277863,
        -0.8612804156097612
      ],
      [
        1.066337503432191,
        -0.4158389564309467,
        -1.0183121730049207,
        0.33221900994258347,
        -0.639588326176266,
        0.6154098876627678,
        -0.8639241280174856,
        -0.3815845147232096,
        0.5145171016704103,
        -1.6064642236430182,
        -0.7743163538911225,
        1.418042137073978,
        0.6236638122531725,
        0.09765826331500754,
        0.5328410974562726,
        0.13238826229064884,
        -0.4861496889370475,
        -0.6492917747630745,
        0.013005838345414045,
        -2.6345239370509126,
        0.5762809157238087,
        0.31895436862831206,
        -1.5801767397241484,
        0.45761433735399876,
        -0.1048221278857272,
        -0.3099975948422872,
        0.4491726442591953,
        0.37534723484567073,
        0.8299298961900765,
        -0.2829878077355641,
        1.3054339170956615,
        0.5698876145009326,
        1.0051917982743734,
        0.52626219619914,
        0.3739508958138395,
        -0.3509372656128655
      ],
      [
        -0.5633129094660583,
        0.00872849766867537,
        1.0554072220284993,
        -0.23927742668542842,
        0.16521361436263748,
        0.46232501860352115,
        -0.11573100605303688,
        -0.5475762240310417,
        0.6297739915912067,
        -0.7640524217722452,
        -1.9230171793157191,
        -0.30750037369272226,
        0.8193637221736348,
        -0.10776616151082453,
        0.47768501326921453,
        1.823455717159282,
        1.814586327818353,
        -1.1326333373258983,
        -1.111170914313533,
        -1.1932569222903713,
        -1.6445271213636534,
        0.10040484070366573,
        -0.8742281372560134,
        0.4016451578662238,
        -0.6256219726375128,
        -2.2113078982012198,
        -0.7366408017439644,
        -0.7466663011506695,
        1.784982557054525,
        0.5608157149417562,
        -0.2445530391860056,
        -1.5543575060251869,
        -0.5282112936238385,
        0.6046422252104641,
        -0.9946679835807065,
        0.8458378365789614
      ],
      [
        1.808021445805647,
        -0.5260732253598909,
        1.3668873513718138,
        1.2255160731801273,
        0.6352774610450639,
        0.03587481745141423,
        -0.6017027844555434,
        -0.4542432553476152,
        0.862168064257082,
        1.7746123919737866,
        -0.4883008524260216,
        2.6046045100317,
        -0.8433596986552302,
        -0.1983885999611774,
        -1.1921740776048968,
        0.5885020587957311,
        -0.0021370139181951524,
        -0.4264125332439436,
        -0.7627026569011371,
        -1.2819848387160426,
        -0.3806652451484081,
        -0.1914193991586653,
        0.9737616931435059,
        -0.16112724595185107,
        0.76085350438151,
        0.32645273161133986,
        1.4633792573138662,
        0.561873001768349,
        0.9264256197253349,
        0.22443190345085662,
        0.43955571251811876,
        0.046402424401521286,
        -0.38460394956882066,
        1.0555769374769282,
        -1.580336109324325,
        -0.198041909415293
      ],
      [
        1.393385796777574,
        -1.707248966948489,
        -1.2233982311221177,
        -0.4503270125912049,
        0.3195698871696599,
        0.3072836041152215,
        1.6178699052101913,
        1.5708260598255912,
        0.5842482719594301,
        1.170071466155893,
        0.7414797731928602,
        -0.17740011556358995,
        -1.3062976090727654,
        -0.25271599441888926,
        -1.024566473833674,
        0.5160228826224224,
        1.6636601052934392,
        0.5778577807818959,
        0.13961804724078064,
        -0.3559049653177577,
        -0.45348491463625623,
        -0.40735180044614855,
        -0.021692218155967172,
        0.10336492484317202,
        -1.4093676103533255,
        -0.11078155368795914,
        -1.413953812810705,
        0.6623095256199627,
        0.6707402540736751,
        -2.3630280890836253,
        0.0995289742567762,
        -0.6854021709912512,
        0.4588548681716737,
        0.6843856671050719,
        0.6719095877414026,
        -0.16057635093446715
      ],
      [
        -0.9442430784072461,
        0.015665138037744535,
        1.2375560675554507,
        -0.771960148253127,
        -1.3976610450441815,
        0.2554524126743087,
        -0.23150117366547296,
        -1.8502179215195966,
        -1.4216242741715326,
        1.4798512223629432,
        -0.2878597585693992,
        -0.25978231811789654,
        -1.7139580825171208,
        0.5500883658813583,
        -0.08151981792647543,
        -0.09003196837467072,
        -0.5067260983482945,
        -0.13406381742010462,
        0.2776913439553349,
        -0.7376095677697517,
        -1.6473187442218382,
        1.9488216770327225,
        2.374302447383581,
        -0.11409310136659494,
        0.11404512801488396,
        -1.0513801373093385,
        -0.4001421071701824,
        0.12457467661895841,
        -0.049749906946169944,
        1.7964356712525642,
        -0.9516815366699445,
        -0.15223786903499686,
        -0.2932189349546192,
        -0.6583208319142226,
        -0.32057436726371097,
        -2.3545893183994453
      ],
      [
        -0.6888599723437114,
        -0.29437077657386734,
        0.5096281001372381,
        -2.1039618613172304,
        0.37056575154560867,
        -0.15076393202474,
        -0.013959486112030262,
        1.2207331708645317,
        1.0111840569236505,
        0.8359039234262128,
        -0.9788503768432327,
        -0.11127234296178062,
        0.5042804336421346,
        0.03829787958836282,
        0.35139144763484287,
        0.5708196529292194,
        0.37714823021732247,
        -0.9242414133941588,
        1.12368756973515,
        0.03859960088187148,
        0.44563363905584724,
        -0.6310425882243984,
        -0.9047000608221946,
        0.3094548525213615,
        -0.8743699475830582,
        0.4732567539280216,
        0.9780619326804175,
        0.5508165951551334,
        -0.17987790198185905,
        -0.699406064154189,
        1.5448848909843496,
        0.5174846039587129,
        1.0196868462797977,
        0.5739008890618352,
        0.228671903220152,
        -0.11299488446459584
      ],
      [
        -1.457184075917714,
        0.5501744330173969,
        0.16854711299616762,
        -0.188486155675823,
        -1.2212683330797165,
        1.8687180549804943,
        -0.7855586551453103,
        2.8091442254650354,
        0.6406830501095356,
        -0.7840975121261459,
        -0.7657607588876557,
        0.6794232581454486,
        0.028157803073702036,
        -0.22407914731417625,
        -0.2109077747318103,
        -0.9790500738053348,
        0.1263670097376819,
        -1.3879981794360492,
        -0.4323967814442232,
        -0.007014667085320262,
        0.058394196449223834,
        0.7775915913446294,
        0.78674696936689,
        -0.21295821990174757,
        -1.751619213333716,
        -0.17444361766513716,
        -0.8878928317384537,
        1.4965476289634188,
        0.27621461131226993,
        -0.5245141780082919,
        0.2993700406317846,
        0.23826073602265513,
        1.4430188083718176,
        -1.334101422909793,
        -0.2127468146718638,
        1.0464254519641498
      ],
      [
        -0.6702864028079487,
        -0.7116840796401516,
        -0.32131756398200134,
        -0.1696772389472665,
        2.6563852689227407,
        -0.21346865387771585,
        -0.46525587195463775,
        -0.6158099682644331,
        0.4215683778072475,
        0.09378864355954115,
        0.13915035652264363,
        -0.27950829981103137,
        1.5848934350411474,
        -0.08211607027091201,
        1.7939164949797715,
        0.24951557551053294,
        -1.132390835140547,
        -0.5912361109284172,
        -0.6105887174372858,
        -0.22572852624512044,
        0.7158175671393798,
        -0.3590313768137487,
        -2.766412561334654,
        0.736478201885041,
        0.05144547042257042,
        0.002376842545575802,
        -1.370962306204474,
        -0.25476398249214,
        -1.3315752207063547,
        0.30796666416611745,
        -0.3594161974320127,
        -0.18813892148740746,
        0.26994654380772337,
        1.9803773789402785,
        0.9875308248585494,
        1.5141442065136625
      ],
      [
        1.1386971851586545,
        1.0600107135526842,
        0.8523875614012946,
        0.45104241304166065,
        -0.5605541589694566,
        -0.51137890947225,
        -1.0578900400763225,
        0.9298175942305558,
        -0.7830379992096271,
        0.6957617303103243,
        -0.6180716969111816,
        -0.2791834479527937,
        -0.7652402476520834,
        0.930253057038066,
        -0.8362749788050879,
        0.4247419103731598,
        0.7805565927721909,
        0.7737452715200983,
        -0.009524976024902487,
        0.2723037586801447,
        0.21565138472770762,
        1.146980486748693,
        -0.14015216315449922,
        -0.49341367987064494,
        1.4582270418575083,
        -1.571699804944397,
        0.3281537769187666,
        1.0811267034644951,
        0.7218778010013788,
        -0.04696859476430109,
        1.3953334262937007,
        -1.383626295552871,
        0.9939202416883935,
        -0.12924032186928863,
        -1.026804526280275,
        0.06097975917793849
      ],
      [
        0.8641180332354989,
        0.5514030666037817,
        -0.5911339663868549,
        -0.27909538205117634,
        1.802860778429382,
        0.3494050609757669,
        -0.9377638434555874,
        1.789961408131149,
        0.23651945048856274,
        0.08712569759305622,
        -0.3165163361405355,
        -1.0306283373233138,
        -0.12621027290699519,
        2.5743912358486285,
        0.22294747192509573,
        -0.37027463952646067,
        -0.7950837775912423,
        -0.36893864024010525,
        0.5204959374681055,
        0.8197938135624738,
        -1.3602390365800543,
        0.5871911745726263,
        0.6842586430116129,
        0.8795238452655028,
        1.0003095442465615,
        -1.0759101024670092,
        0.7031398941462355,
        0.6438869984351462,
        0.4481514304141657,
        -0.480196159853458,
        -0.18933772625403575,
        -1.0885558070681352,
        -0.14394912612576877,
        0.6314984521493222,
        0.5385424912696579,
        0.4219216435096621
      ],
      [
        -0.5875671326322558,
        1.3592762098738196,
        1.0563059498714364,
        0.4030368458899238,
        -2.0697552688986773,
        -1.5063841310681678,
        -0.781430936165157,
        -0.3363145331686913,
        -0.17161658268441313,
        0.09699408698560628,
        -0.3423746293632523,
        -0.10581303226074402,
        -0.01401851378836859,
        -0.7068768103062644,
        0.310872747029182,
        0.9503833781348278,
        1.1692397642433783,
        0.3997903269498522,
        0.37719341095741327,
        0.7354108198108841,
        2.239520380097334,
        -0.5841271404869748,
        0.30888936555310925,
        -1.3956265746077787,
        1.5801617493207305,
        -1.0063046228554826,
        0.7557239142672751,
        -0.35142425584119846,
        0.2882224220848735,
        -0.7090155061752395,
        -0.897663871914462,
        -0.18349472851207926,
        0.3240118147872133,
        -0.21516706201628952,
        -0.40039038437296576,
        -1.3265131208495227
      ],
      [
        0.745997191500593,
        -0.32139337087700903,
        -2.9097403220363756,
        -0.10779046295925249,
        0.4716187272866053,
        1.5007332230168453,
        -0.5550035582675237,
        -0.8511212245593136,
        -1.4963883178321082,
        0.5531195859481873,
        0.44076370689616373,
        -0.8684175020899216,
        0.38204744306078614,
        0.9510082602037607,
        0.41716923794959937,
        -0.8406185221100553,
        0.25681024491125753,
        -0.7865970567547564,
        0.6368398164431901,
        -0.3331816141439681,
        0.2389293156339979,
        -0.6033821784115896,
        1.9373226276505418,
        -0.050476171189141585,
        0.45821017559206584,
        -0.6074792778426166,
        -0.9399334373731527,
        0.005012395667803018,
        0.38707603353844083,
        1.5075641923998648,
        -1.5105640350936511,
        0.9355352199635637,
        -0.44770157483600087,
        -0.8543059468176766,
        -0.6510411186283961,
        -0.9931261345323623
      ]
    ],
    "layer4": [
      [
        0.8818076941749748,
        -0.32522992996699,
        -0.2615893315917687,
        0.7880539978841369,
        1.044909443353733,
        -0.6361525513607903,
        0.4804045106940122,
        0.7907749402740434,
        -2.623200900652793,
        0.8192592327088536,
        -1.5118687216230478,
        -0.629812156197348,
        0.036609791168124864,
        -0.029115403247630785,
        0.4210329447272647,
        -0.14676312693926605,
        1.5111357489863333,
        -1.3357582125198821
      ],
      [
        -0.9387039061765423,
        -0.9317499185054445,
        0.0033436639097591584,
        -2.0253227377730316,
        2.0533736561649722,
        -0.8434367617743835,
        0.2720498163021173,
        -1.050813771869751,
        -0.096368987357305,
        -0.4346763554570118,
        -0.6013141822652083,
        -2.033219150214715,
        1.4369277442156256,
        0.06645994363105087,
        0.11967390139953811,
        0.26296825115897215,
        -0.11748922112053505,
        -0.30477622804885734
      ],
      [
        0.36588923186186584,
        0.15596548909712094,
        1.107318405176696,
        0.5279534706421766,
        1.334224014899739,
        0.46177883674510334,
        0.16071973376669085,
        0.06933501067416376,
        -0.7137946870281748,
        0.29866853291162626,
        0.15208772713416652,
        -0.4127821145339201,
        0.21107822348745647,
        -0.16019097275565947,
        0.6324410639496575,
        1.3073954100287666,
        -0.2307019723693765,
        -0.5455510711683755
      ],
      [
        0.8340775441985291,
        -0.5149178486407575,
        1.1383747821399364,
        -0.5184829473934788,
        -1.0109393863381388,
        -1.1789019963731602,
        0.7962407969475325,
        0.09049942025306004,
        -1.3060271979120819,
        -0.0005208763323988333,
        0.17143688294558443,
        0.4689157589453256,
        -0.4168549031863273,
        -0.9518639012506789,
        -0.6428172534404111,
        0.4340606371286925,
        0.7446682414627662,
        -0.5374073192497358
      ],
      [
        0.20815944078695303,
        0.5632672735050951,
        -0.17287346836088766,
        0.6169697772450795,
        1.3887377699984043,
        1.4095803784842469,
        1.6957015010622807,
        0.15473907804528927,
        -0.4679557734729462,
        0.7612569145809217,
        1.840610808016311,
        1.1382173710530934,
        0.4471719996869044,
        0.16866655903158648,
        0.8475692613028762,
        1.0935877972145398,
        0.8131942477645626,
        -1.0624347446088676
      ],
      [
        0.05119400847823191,
        -0.8025243853516483,
        0.48952605378471176,
        0.5255488134029203,
        0.3793034629068591,
        0.28186638523491286,
        -1.747886145203577,
        -0.26700230656836643,
        -0.9988144904147082,
        -0.3508748351142279,
        0.6892156912127376,
        0.17180794924753479,
        1.1587227042520216,
        -2.0424793511241535,
        0.32599925181639267,
        0.5596065034924115,
        1.2599654944833043,
        -1.314458471459653
      ],
      [
        0.8599349597364653,
        1.7840327042120843,
        0.6056700400690109,
        0.14152410480211366,
        0.7586951727362836,
        -1.2380027900912844,
        0.3558332085276382,
        1.152728411791559,
        -0.18876938212266436,
        2.275192307980816,
        -0.4675513772498042,
        0.3012168960191781,
        1.1718837288696422,
        0.19019684791872118,
        0.23611433422903516,
        0.6771693461502091,
        -0.5877374280922102,
        0.2657378632631206
      ],
      [
        1.883287075633736,
        0.5342591685409941,
        1.1571747898680143,
        -0.9382693312579311,
        -1.1286105381827445,
        0.5012859160236152,
        0.33197839092086423,
        -1.1639739352647755,
        -1.5015367806979076,
        0.17476779516360957,
        1.0126628505203654,
        0.29204734451092523,
        0.9318408323671769,
        -1.6776075492356919,
        1.211094041827241,
        0.36384517347576817,
        0.5439419673646518,
        -1.5497316510878911
      ],
      [
        0.8266242738915028,
        -1.406678658404423,
        1.7698228556991387,
        -0.8132712614111307,
        2.2098704654553125,
        1.3323188199742682,
        1.471065040758927,
        0.3765813711611627,
        -0.5396136488613075,
        -3.4621751777495935,
        -0.39766858816732964,
        -0.5026749729908038,
        -0.134273644987254,
        -0.7522240458492244,
        -0.9758372215741005,
        0.2589383912365743,
        -0.713983278319495,
        -0.3190963359265203
      ]
    ]
  },
  "biases": {
    "layer1": [
      [
        1.761435553306737
      ],
      [
        -0.21844866324678328
      ],
      [
        -0.3170140088622892
      ],
      [
        3.2692248004859588
      ],
      [
        1.1005256507353078
      ],
      [
        -0.09659571815491924
      ],
      [
        0.9830130400575587
      ],
      [
        -1.2704910125033562
      ],
      [
        -1.7466495784048686
      ],
      [
        -0.10062030738712874
      ],
      [
        0.9539992238381722
      ],
      [
        -0.10464740611406435
      ],
      [
        -0.7424171871929848
      ],
      [
        0.42524743466394965
      ],
      [
        1.8264618458610422
      ],
      [
        0.5461718348287212
      ],
      [
        -1.334403591556457
      ],
      [
        1.138105113106387
      ]
    ],
    "layer2": [
      [
        0.3712453480604786
      ],
      [
        -0.17783119717529805
      ],
      [
        -0.37453469788063304
      ],
      [
        -0.1258489817514886
      ],
      [
        0.522192718384065
      ],
      [
        -0.408476169118164
      ],
      [
        -0.384112049976069
      ],
      [
        -0.9364782112422879
      ],
      [
        -0.5178117524077283
      ],
      [
        0.15352713656538064
      ],
      [
        0.9841862760442124
      ],
      [
        -0.06762008817589873
      ],
      [
        0.17803393762000091
      ],
      [
        0.24043232165637843
      ],
      [
        -0.3618153404372529
      ],
      [
        0.3123198885067821
      ],
      [
        -1.3858266094682106
      ],
      [
        0.23658997329035414
      ],
      [
        -0.477818035034558
      ],
      [
        -0.5715362594452454
      ],
      [
        -0.18877383021365662
      ],
      [
        -0.7000886457587132
      ],
      [
        -0.9001206397801458
      ],
      [
        -1.3432565371416056
      ],
      [
        -1.2131531163440696
      ],
      [
        -3.161645371827465
      ],
      [
        1.1484880525798087
      ],
      [
        -0.4119508291993104
      ],
      [
        -0.627971440855685
      ],
      [
        0.5274415938329438
      ],
      [
        -1.3883771426230855
      ],
      [
        -0.07543239163826868
      ],
      [
        -0.36894811294171526
      ],
      [
        1.3345815040987312
      ],
      [
        -0.0620893348143145
      ],
      [
        -1.5955211715657693
      ]
    ],
    "layer3": [
      [
        1.2024483077980983
      ],
      [
        0.7986129428349694
      ],
      [
        -0.9752588921962498
      ],
      [
        0.19467683867452726
      ],
      [
        0.4134736737104376
      ],
      [
        -1.0223624383864003
      ],
      [
        -1.3208429569760174
      ],
      [
        -2.4788175986301666
      ],
      [
        -0.7027934457839076
      ],
      [
        0.45160206399622976
      ],
      [
        1.4528032173703493
      ],
      [
        1.028861026700487
      ],
      [
        -1.378783162353629
      ],
      [
        -0.5356172074974078
      ],
      [
        -0.8947955408975031
      ],
      [
        -0.4487710262148682
      ],
      [
        -1.4772165555206915
      ],
      [
        -0.4670371503039116
      ]
    ],
    "layer4": [
      [
        0.20077095660669203
      ],
      [
        -0.7762308426321387
      ],
      [
        0.8792111974713537
      ],
      [
        0.38612731860276334
      ],
      [
        -0.27882653672739216
      ],
      [
        0.8558175633705083
      ],
      [
        1.4675082208669257
      ],
      [
        -0.5154841131142154
      ],
      [
        -0.17544062049007433
      ]
    ]
  }
}
