{
  "name": "CCE model",
  "learning_rate": 0.0001,
  "threshold": 0.0,
  "epsilon": 0.0001,
  "network": [
    "Dense layer of shape (9, 18)",
    "relu activation layer",
    "Dense layer of shape (18, 36)",
    "sigmoid activation layer",
    "Dense layer of shape (36, 54)",
    "tanh activation layer",
    "Dense layer of shape (54, 36)",
    "sigmoid activation layer",
    "Dense layer of shape (36, 18)",
    "tanh activation layer",
    "Dense layer of shape (18, 9)",
    "softmax activation layer"
  ],
  "cost_function": "CategoricalCrossEntropy",
  "weights": {
    "layer1": [
      [
        2.6716790494850144,
        0.5381372303330685,
        1.2491828342040057,
        0.38002723503023006,
        -0.39845638867331107,
        0.6159856450319785,
        0.47786189340876933,
        -0.09620282526846526,
        -1.6068048163760025
      ],
      [
        1.035417596250062,
        1.4270188298999722,
        2.5468839095098783,
        -1.900256962887208,
        1.7259310629924554,
        -1.2451061759479294,
        -0.8001074476099698,
        0.12510640579768267,
        -0.4710068099385451
      ],
      [
        -0.5831109579592183,
        0.03442316812064275,
        2.5981711701899055,
        -1.4642915178680078,
        -2.9902758513261007,
        1.8126879908653706,
        -0.9335159126114145,
        -0.0195405307618516,
        1.5575682322287199
      ],
      [
        1.7319216647618783,
        2.1526913677879156,
        2.2253843680685255,
        0.1217033131967906,
        -2.0447230800844762,
        0.33493669055699266,
        -0.8592893828056077,
        0.057922071585232944,
        0.022664629060749193
      ],
      [
        0.9900608345894267,
        0.6005932792949122,
        -0.42325971869526174,
        -0.5155311768425666,
        4.249922524623922,
        -0.06938448261025804,
        -0.4778664302146707,
        0.3394006447719959,
        -0.5595921245564309
      ],
      [
        -0.1225968546125281,
        -0.20170993265402223,
        -0.144529272802425,
        -0.3690759864674466,
        0.9796797122582721,
        -0.21743815269387798,
        -0.7118214372482562,
        0.5126614622808449,
        3.074066548861412
      ],
      [
        -0.2840477020409136,
        0.635387272703958,
        -0.26978532831625884,
        0.12195367415126762,
        0.7084608784797282,
        0.45290828589200166,
        1.0176510305440887,
        3.354840702199681,
        0.52755237384365
      ],
      [
        -0.06452814717874207,
        0.1289803138516197,
        0.5103000325316488,
        -1.0711020232672668,
        0.08629071141704195,
        -0.8629649973199816,
        1.6094436266009582,
        1.7199638915146254,
        1.7885709051525431
      ],
      [
        -1.1809736720330173,
        0.18945067044399627,
        0.5449465517030746,
        -0.7733989182602893,
        1.1562549968940206,
        -0.7988857495697822,
        -0.1622950509517544,
        1.2396566880846884,
        -1.7301737597465487
      ],
      [
        -0.7872900016940755,
        1.5298623897444399,
        -0.5976211303789416,
        -0.7600783788916275,
        0.7267393774469308,
        -0.13668623189059398,
        -1.9089355144154778,
        2.016385490071198,
        -0.5329561659869939
      ],
      [
        -0.500429695189938,
        0.4050709026998502,
        -2.4116968475737304,
        -1.3616956642318723,
        -1.6358544194525884,
        0.5935457762003065,
        -0.2274331708866234,
        0.8336128543047521,
        1.5123033164069808
      ],
      [
        -0.9933615001962688,
        -0.7470453337003626,
        0.9577250421941642,
        0.3614513158106776,
        1.7536641003085214,
        1.1381858882617506,
        -0.9985663032858372,
        -0.40843063986034284,
        -0.6211221005852378
      ],
      [
        3.2716823524773377,
        0.0036122626272410033,
        -0.6632190315546194,
        -0.1700600560680807,
        1.6122480485702204,
        0.07196794749771243,
        0.4963501428013884,
        0.15842556995465396,
        1.9919342236672117
      ],
      [
        2.610053167492026,
        0.36000242621838807,
        -2.1386768961473384,
        -0.4826664124765511,
        -0.06896736931822599,
        -0.5260714467250323,
        1.469654704415675,
        0.6156243540066796,
        -2.0343110555685686
      ],
      [
        -0.9983037053976281,
        0.31788060955416086,
        -4.558409167033127,
        -0.7430696286404441,
        0.9164085223357153,
        0.7684929759742068,
        -0.7993306638774507,
        0.08576353899715802,
        0.27930340544353743
      ],
      [
        -0.8434726908729033,
        -0.14976968612493521,
        0.9360068204087196,
        -0.844622023097667,
        1.6726438354733895,
        0.4127682103014896,
        2.876743213713003,
        -0.5261657686178913,
        0.562536069543565
      ],
      [
        0.02299774659316038,
        -0.42130159761292113,
        0.3952521020588251,
        0.5504260520691974,
        -0.7268798446778354,
        1.432226660253514,
        0.7708913237440796,
        -0.03207756658646177,
        -2.9247913244720243
      ],
      [
        -1.3730362983120374,
        2.563612663931277,
        -0.5023892419830261,
        -0.5514081660066846,
        0.5238634909151002,
        0.025678953124083262,
        -0.5725866010414534,
        1.5709248370548325,
        -0.739994003916299
      ]
    ],
    "layer2": [
      [
        0.23042951109532409,
        0.44804739288790596,
        0.2455149650032488,
        0.7797735853218087,
        0.03339643346397902,
        0.43678818515741324,
        2.395849399436147,
        -1.501525350868025,
        -0.08995451779350826,
        -0.3810703481462521,
        0.887172490667377,
        -0.8758441334006204,
        -0.1595164372429039,
        0.010531997932930161,
        -1.4808295341891526,
        1.1316950629243006,
        -0.5579872720250221,
        -0.5873218947173997
      ],
      [
        -0.38090840722643227,
        -1.5945132226438619,
        0.3932864105018358,
        -1.2360054038636368,
        -1.9519151442807,
        -2.604941956935019,
        0.9269513581269478,
        0.040130905018566906,
        -0.18309718379587547,
        -1.086956379461241,
        0.3957119383617049,
        0.47259245071186,
        -0.9233474670772,
        -1.1557584012886768,
        -0.9736815834342742,
        -1.6338223676384767,
        1.9041001940486788,
        -0.01172290094164743
      ],
      [
        1.4095361059821592,
        -0.13503392130991068,
        2.5913356942789685,
        1.8287842769078166,
        -0.30277223060714464,
        -0.8059012068316367,
        -0.12902395899442168,
        1.4566802816163347,
        -1.9164010726891676,
        0.24245783793753645,
        -2.0649663289148776,
        -0.6606254092814251,
        0.721965442741971,
        -0.36091122965317696,
        -0.2922985270812498,
        -0.9988307795328993,
        -0.1642978186143914,
        1.731753565703264
      ],
      [
        1.7450643135207151,
        1.0416273621582441,
        -0.3273500974539011,
        -0.155839724624052,
        1.0962103697308845,
        -0.1198738850006109,
        0.0698409466570343,
        -0.16428261081524229,
        1.6021818282688685,
        1.0482374584788354,
        -0.48405780690533995,
        0.06721483231980865,
        -1.6452619370463657,
        3.1045737651323906,
        -0.19387850440182697,
        -0.05662134033792986,
        0.7161370168013034,
        -1.250941737627905
      ],
      [
        1.2317091702320178,
        0.13620977296320608,
        0.9488173788393621,
        0.7402855254102233,
        -0.2013249242891897,
        0.41864780216098807,
        0.912171732795578,
        -0.3790800346640644,
        -1.1564749592106909,
        -0.06667678434709397,
        0.4972266303968394,
        1.2978822479967853,
        0.7040881089208285,
        -0.09107594801514303,
        1.8629474515921594,
        -2.450044151404638,
        0.11462211251091767,
        -1.7737214311012235
      ],
      [
        -0.9014989155666742,
        -1.8978513862456394,
        -1.401069598861658,
        -1.0976507025742286,
        -0.4989721258602482,
        -1.050368341184157,
        1.262084907630483,
        0.4316966892102288,
        0.16319373885513092,
        -1.0650993572631395,
        0.5520891515894398,
        -1.6861054766145218,
        0.5606330140622652,
        1.1498515973450545,
        -0.9747026983901953,
        -1.1739284092090276,
        0.3489100086239014,
        -0.18602104439315098
      ],
      [
        0.5436135026366805,
        0.7611312568364421,
        0.6504312900113709,
        1.065124723169234,
        1.1778300823715333,
        -1.047491698210958,
        0.696215489956124,
        0.027028591765584153,
        -0.3541350113143459,
        -0.20996899894245055,
        -2.0953570567227406,
        -0.9718801335849951,
        -0.1904809711185492,
        -2.263301386519664,
        1.8912151090164062,
        0.45833090427793605,
        -1.0594901989973413,
        0.6748214240724222
      ],
      [
        -0.563794030898211,
        0.8549763686530403,
        -1.670337955553427,
        -0.8394905364217331,
        -1.9750681479528187,
        1.5091596573317452,
        0.8307152450234466,
        -0.18759477198254967,
        0.8368638399234191,
        0.788786643677936,
        0.902524000091775,
        1.5818777644239224,
        -0.05596894004396765,
        -0.39816337118348943,
        1.7561292540827438,
        1.0581049705106271,
        -0.3489634883106588,
        -0.7864841966999112
      ],
      [
        1.2238582080401714,
        -1.8237953834253982,
        -0.6768568289568088,
        -0.26018443280788145,
        -1.053419547041475,
        1.211760495276016,
        -0.20235674578307988,
        -1.3648810690626665,
        0.7555008092078875,
        -1.559849816364884,
        0.711726165414927,
        0.8371390180475101,
        -1.6793787011565506,
        -0.23218966399666283,
        -0.6969306781914218,
        -0.6740463852316149,
        -0.7641020901211262,
        0.5061472248784683
      ],
      [
        -0.25061807371277905,
        0.4471098178261404,
        -0.3599562381662309,
        0.6170572606505931,
        -2.459538941314546,
        1.4722677978807783,
        -0.10032919560737731,
        1.1733537248439996,
        0.9242508098104678,
        0.849809320395181,
        -3.502973367767414,
        -1.8687178213265363,
        0.0691197820989134,
        -0.881554390331247,
        -1.2422799346291185,
        -0.20614864259224772,
        1.6617586348899545,
        -0.7371453942489281
      ],
      [
        -0.8229542795213864,
        -0.3375281786468239,
        1.0523650450894528,
        -1.1123426520916446,
        -0.057692407712897506,
        0.12514515224455172,
        0.46310648096516266,
        0.33828075932619894,
        0.04502380818181784,
        -0.7994960124052005,
        -1.7634747981485315,
        -0.7079258795124598,
        -1.808926392381919,
        -0.3464148043237984,
        -1.1627294133365367,
        -1.6805268803522382,
        -0.6966549989171951,
        0.6492057273097087
      ],
      [
        0.7137884209215318,
        -0.864174067547573,
        -0.21394278940298977,
        -0.8877740179674931,
        -0.6146220639144029,
        0.3637441077329518,
        0.8188588065079442,
        0.46282168604782914,
        0.36055850828129377,
        -1.666373000130084,
        -0.04285212412146975,
        -2.3576267930525643,
        -1.2951658244278805,
        -2.31795802365106,
        1.738887048129614,
        0.7044752835562422,
        -1.0472241110001987,
        -0.22801357319484317
      ],
      [
        0.9334155901207799,
        2.1393346047867086,
        1.6995515191472328,
        -0.05729082730974398,
        0.9721574502472046,
        1.4457391846279635,
        0.9491503222884151,
        -1.770367150724429,
        -1.1449524384191132,
        -0.5570705789659577,
        -1.1684105129101803,
        2.1561809606067492,
        0.4084039642129545,
        -1.2146863283418396,
        0.5495499354229082,
        0.07421754563128408,
        0.5414886016407751,
        0.0009052359474056539
      ],
      [
        -0.8442278325828055,
        -1.3915569654132802,
        1.3865139899704995,
        -0.6771700720007633,
        0.12338303633330455,
        -0.46249737325052437,
        -1.2705219452122523,
        -0.5673239481419717,
        0.0640796814832134,
        0.6410020568886053,
        -0.6261263343366174,
        1.2997831810989637,
        -0.8284563027871953,
        -1.487806474104333,
        0.5101406643852644,
        -0.8679977976338327,
        -0.14662404812588128,
        -0.10178994472464578
      ],
      [
        -0.9359735493914099,
        0.9178636358268526,
        -0.6309740716613365,
        -2.016933065245217,
        -0.25257832213362696,
        -1.8439819707882124,
        0.49853152855355715,
        -1.4395579396384104,
        -2.5155027836904083,
        0.39671004119394637,
        0.11964483464847286,
        -0.4576042340521855,
        -1.0361205892244807,
        0.511870487328088,
        0.6702577593911815,
        -0.23330853812222685,
        -1.6533845750211102,
        -0.030404309413703496
      ],
      [
        0.2503797785134351,
        -1.1690366262597611,
        1.096467774920038,
        -1.29717294622617,
        0.28834683278582507,
        -0.6426555340800739,
        -0.9364089147108959,
        0.1483228772413938,
        0.07560015405640778,
        -2.004012555511736,
        -0.9396633554974654,
        1.662427644781619,
        0.8890998887889293,
        0.5168125041816577,
        0.2795992032978523,
        0.23938068832126033,
        -0.6760078224751989,
        -0.8259252605326762
      ],
      [
        -0.00028766617744172213,
        0.32949767913392913,
        0.7551205907775392,
        -0.6520560114885766,
        -0.34688525536325826,
        1.4943554520007936,
        0.5577486771540571,
        0.7433025562994853,
        -1.4649602104240544,
        -1.306649596845114,
        0.4625789667313123,
        0.6801271851431242,
        0.6383729865415229,
        -0.6807437026221825,
        -0.9932373238694262,
        0.007401234939766201,
        -1.038644517864037,
        2.160180262608794
      ],
      [
        -0.4664820690705906,
        -0.29527876497305217,
        0.6138817397840165,
        0.5744951415563799,
        0.4367876343167276,
        0.857862360867879,
        0.515225307989508,
        0.29670712115802306,
        -0.04344872014059814,
        -1.8039974799876795,
        1.5211966701914394,
        0.4554988626247037,
        -1.282257512190944,
        -0.6628788873145445,
        2.8892865984245213,
        -0.07636004477099975,
        -0.3287417407123878,
        1.5814329737572284
      ],
      [
        0.14208248085634395,
        1.1746703893069377,
        -1.1470626846546244,
        -0.396200643493415,
        -1.4737267676549874,
        -0.8099381625498868,
        0.7392762252988196,
        1.2004832100389062,
        -0.15153797759857235,
        1.0601993941475694,
        -1.920121622829196,
        1.19850002403148,
        1.7618918709430484,
        1.390946360908368,
        -1.3973929342063347,
        -0.6422138622965654,
        -0.2937645154199961,
        0.46554266279069895
      ],
      [
        -1.2275247194302359,
        0.5764697713975617,
        -0.11939133159117295,
        -0.3448821260397743,
        1.4724954938762083,
        1.907224306356495,
        0.9914591363426158,
        -0.23962083842183549,
        1.82716971533305,
        1.421330298254439,
        1.0995475022237622,
        -0.9366215406748784,
        -0.8062724914592445,
        2.8292327677070808,
        2.414757699229684,
        -0.9383764282088333,
        2.074767421824539,
        -0.9314647610765923
      ],
      [
        -0.4493851694231004,
        -0.8711048076303173,
        0.8241150631425199,
        -0.9193304722486952,
        0.5374344905255822,
        0.6171749420465593,
        -2.1706696194187245,
        0.1856494936567918,
        -1.0319346714800632,
        0.5725248800261539,
        -1.2364090153995848,
        -0.6445084319718071,
        1.0131872328770783,
        -0.3355745200748347,
        0.6376982663148307,
        -1.0873497614627503,
        -0.4057031596238268,
        2.331060470408868
      ],
      [
        -3.4067484271456547,
        -1.059176579377981,
        1.685827732640195,
        0.07170191774732143,
        0.02099854764976414,
        0.8448974180165257,
        0.7772857875963893,
        -0.7758695917477775,
        -1.9512067120223568,
        0.3129286521319075,
        -0.17482060749295852,
        -0.6487071629520396,
        2.7670454961796787,
        -0.9471476512307679,
        -1.7224960296699845,
        -1.0402732108843245,
        -0.5379410188070972,
        -0.5259841263193532
      ],
      [
        1.1222925209700008,
        0.41548800792794693,
        -2.5785854247488746,
        -0.5737140172097766,
        1.628412885992926,
        0.36848037095819847,
        -0.800818632209197,
        0.5548113634984455,
        0.01351020603364617,
        -0.09459565509188318,
        -1.0557552949378073,
        0.6587370193755974,
        1.0677399936417562,
        0.4011690212735696,
        1.296134724682459,
        0.7416347090791109,
        -0.18932106508397953,
        1.4875226022292711
      ],
      [
        -0.9780378001501414,
        -0.4735361278588558,
        0.37995528247601823,
        -1.370777087153147,
        2.2958846952913126,
        -0.27554005187239194,
        0.4440600607002879,
        -0.05328731010207641,
        -0.02333867175763125,
        -0.7465760868153705,
        -0.6322427071995631,
        0.6835340436381372,
        -1.2292167248094434,
        -0.1606327115378265,
        0.11290391416244387,
        0.20639925867676523,
        -1.6593009048193001,
        -1.6974073413347814
      ],
      [
        -2.457470921249016,
        -0.1405854663242052,
        0.39288651749038145,
        -0.46821101218075767,
        1.280274521201103,
        0.008114290855431985,
        0.20486952865801242,
        0.7158807745308029,
        0.9791600782068629,
        -0.017451485717599514,
        -0.2949214893882415,
        0.8502746310990854,
        -1.0269334085092574,
        0.6473639586241278,
        0.5784462760695358,
        -0.4949588834703024,
        2.1115578213389754,
        0.2077721451088244
      ],
      [
        0.33514490873850916,
        2.4307874512772294,
        -0.0670014763373946,
        0.9870969465698585,
        0.804013160324751,
        -0.16680637178848978,
        -1.3407704860776437,
        0.19757131439265666,
        -0.5764624215148397,
        0.43258944614335804,
        -0.7891939324813838,
        0.719226201160119,
        0.72063726114958,
        1.1519299543318933,
        0.17809045270161453,
        -0.44648971627273043,
        -1.1051687804244337,
        0.9239584632446217
      ],
      [
        -0.27865736794970164,
        -1.3905114967120196,
        -2.3421160961496668,
        -2.1155437146023925,
        -0.2739990751622618,
        -1.2248740577217136,
        0.2775182589665798,
        -0.40626698628105445,
        -0.9546599286858204,
        -0.18436395611617293,
        -1.6525408244668758,
        1.2916312859040602,
        -0.3540822233879238,
        1.5906065261734652,
        0.6175244723142495,
        -0.0937313927289693,
        0.8832387543252823,
        -0.8672353476290572
      ],
      [
        -1.544892645286857,
        1.5082085898858515,
        0.9610517987100653,
        -0.35359255678065693,
        -0.922840117926961,
        0.04545061698415522,
        1.2766322853149987,
        0.09753570953295312,
        0.7046671074928064,
        1.1452084276768861,
        -0.25303277759914167,
        1.2970463149646434,
        2.453180617851722,
        1.4438559277859204,
        0.47431907493894404,
        -1.8931960408442183,
        0.8464919750934694,
        -0.18400032390627719
      ],
      [
        1.2112458724963837,
        -0.4854156498789001,
        -0.17357908615536477,
        0.7575844182315297,
        0.7212905101486713,
        -0.6734718298384588,
        -0.4601639550983166,
        0.13859260477697466,
        1.7839170251216003,
        -0.3724668504650713,
        1.3179959604964187,
        0.6995749111639469,
        -0.020177412303466948,
        -1.6561519117236103,
        -1.4710570765342303,
        2.077735788036442,
        0.03226827188651912,
        -0.18873924691040064
      ],
      [
        -0.8883242241994314,
        1.1460480109987838,
        0.27366261593136015,
        -0.5795444386959178,
        0.5541173020733554,
        -1.2744814951844907,
        0.5834601573498622,
        0.1554213002531136,
        -0.2531375264546715,
        0.49862325437357174,
        0.1836456132298647,
        -1.4911524829383132,
        1.2330870713503206,
        1.1750438827977854,
        0.31553889913766964,
        -0.3558755781697372,
        0.6928924119326992,
        -1.1976641371500347
      ],
      [
        0.25466766960547743,
        -1.3210593674703734,
        -0.49459760332957314,
        0.48955780698298784,
        0.14438353736081108,
        0.516078003423502,
        0.31838609861798967,
        0.05176951398751722,
        0.6936322098958416,
        2.2503981725506605,
        -0.8891179818047283,
        0.24673566213823103,
        0.37732854967720286,
        2.088138708101858,
        -0.2879614736406253,
        -1.975981907516927,
        -1.0144073190892815,
        -1.5096959423508556
      ],
      [
        0.12433482667866623,
        0.122128729002088,
        2.2482106159413275,
        -1.9762213817360004,
        -1.6540271352056202,
        -0.5423148480115353,
        0.756347556226455,
        0.8467741304841915,
        -0.5767291962443396,
        0.20577502089382227,
        0.9604059386149878,
        -0.3307222166848302,
        1.074699999710723,
        -0.23042361016752227,
        0.46850474853696344,
        0.45349905741865537,
        0.7030220452769936,
        0.772231834364109
      ],
      [
        0.858574812308777,
        -0.18748678716289163,
        -0.645419305000734,
        0.23979818131811523,
        0.015841849771306475,
        -0.1357036678611066,
        -0.6308076807744222,
        -0.5907633083898571,
        1.4717439340142948,
        -0.5620565323753031,
        1.6327524372327455,
        -0.18607004557211573,
        2.229176596514748,
        -0.5873992090195302,
        -2.3614682257749506,
        -0.18572658096551936,
        1.508743234588299,
        -1.635441914149735
      ],
      [
        2.6241351785322844,
        -1.4654554341147148,
        3.0015869928563568,
        0.18279396229862518,
        -1.5080575028115466,
        -1.3007898715611095,
        -0.11228833805432348,
        -0.6670685213458272,
        -1.933136210538129,
        -0.46511299925594835,
        1.0823940167785202,
        0.0599942791715603,
        -0.5167703568490903,
        -0.27726670838029077,
        0.3396660102085276,
        1.7148027243078698,
        -0.8867166037659299,
        -0.18627033747675867
      ],
      [
        0.1956449030778678,
        -0.4527439841829767,
        0.009225430696764104,
        -0.11054472870924639,
        -1.8306010190915238,
        -0.8756727743751337,
        0.06291637236629805,
        2.8854271026945613,
        0.660934879039114,
        -1.3281809913916995,
        0.34112490147749297,
        -1.3548157258630227,
        0.08267935419098026,
        -0.7756471193521572,
        -0.23908696332961807,
        -0.8110896908114437,
        0.19107085530284126,
        -0.28296293636621034
      ],
      [
        -0.6567094510810857,
        3.4395754138340604,
        1.0755071429453003,
        0.674214864199145,
        2.331070145511539,
        2.1982588280851054,
        0.8720877856249404,
        0.160660368036254,
        0.510942372908404,
        1.5221834490166886,
        -0.8262032525380635,
        1.2417210875102165,
        -0.9747164043905181,
        0.28396643923241455,
        1.6879722969544861,
        0.6025538759982221,
        0.07611221073023294,
        -0.3999973473496319
      ]
    ],
    "layer3": [
      [
        -1.0921769095986924,
        -0.7824314211017561,
        0.5147498957280698,
        0.1836706165816434,
        0.9355227171539068,
        0.08723255679356061,
        -0.7651026097604774,
        0.9575482805867622,
        -0.2416875232505755,
        0.3293208981427697,
        0.1567551085954101,
        -0.8614448910620596,
        0.7874327506395288,
        0.7209245812737997,
        -0.6890752839155544,
        -0.29696718535191086,
        -0.4790851657189962,
        -0.2750842219424046,
        -0.8999888861457493,
        1.5436742416121088,
        -0.7284064604433362,
        0.624985491904927,
        0.797519247493899,
        0.39214916845565373,
        -0.050976091322594556,
        0.32665362819549465,
        0.8374698457154813,
        1.9206789545620746,
        0.7705226155693777,
        0.28609579794538414,
        0.5112998913238994,
        -1.258596497216614,
        -0.2559180463579608,
        1.742907567896392,
        0.46486056005410326,
        0.6082324686291016
      ],
      [
        0.09812430213968225,
        0.4350270246576788,
        -0.44451744139917193,
        -2.021096552638314,
        -1.4181095909099033,
        -1.2316560070998466,
        -1.2942323612466888,
        0.0053673358872153454,
        -0.5074224458804878,
        1.925285821623568,
        -0.6624412763486299,
        -0.7575790199001724,
        1.2258471772062172,
        0.3355637244122837,
        -0.09967007532181742,
        -0.4251473377924528,
        0.8842103597018603,
        -0.037642800707430084,
        0.19626047796581647,
        -1.1634172792220205,
        0.10149338015184449,
        1.3447792568216241,
        -0.2272450385570843,
        -0.38338935673231717,
        1.9346491323047947,
        -0.02763240214406768,
        -0.0006613515767234082,
        1.586672821847237,
        -1.0876376915173607,
        1.716311163792188,
        0.16866066020670914,
        1.9908919743280213,
        0.18478474540883266,
        0.743033229177956,
        0.5819193633246494,
        -1.512829382233729
      ],
      [
        -0.42541360453333515,
        -0.6097118643399237,
        0.9450965647354627,
        -0.6074592158488182,
        -0.12589641947510427,
        -0.8152459501647246,
        1.4372275561515393,
        -0.4935098573624741,
        -1.0603655180293572,
        0.8590462834781906,
        1.5000565722174795,
        -0.1045687720338724,
        0.5686103567672529,
        -0.413090401830119,
        1.3068777623356729,
        -1.1482173786458898,
        -1.208839722480579,
        -0.3020303509525432,
        -1.2213043341375558,
        -0.22299302306030502,
        -1.2493340108473128,
        -0.07403867650639588,
        0.19159191999562045,
        0.06441798387457871,
        -0.15496892346369973,
        1.8206967073970022,
        0.12589957455789183,
        0.5021573792385571,
        -0.4156899430882355,
        -0.10964668663196928,
        -1.203816159542933,
        0.06484979746885501,
        -0.514331778906378,
        -0.9853274041159138,
        -0.09806310835600976,
        -1.2936452294237437
      ],
      [
        0.33594975581970393,
        -1.3203651264627525,
        -2.69189929544647,
        0.6084486586443726,
        -0.44285907344475955,
        0.8797879602020838,
        -0.8555447613645409,
        -0.42364473410742026,
        2.351057892598787,
        -0.09524318117011397,
        1.5858387981420046,
        0.8089507954401518,
        1.1829983482969766,
        -0.950093421212097,
        1.1231760388631562,
        0.6949868800086018,
        0.49985101290879963,
        -0.5521910709053514,
        1.3520736042947477,
        -0.7969573681346867,
        0.21354990789160846,
        -0.338652747909289,
        0.9036473867740834,
        0.9688209013117061,
        -0.07860009596976539,
        0.5031644651647165,
        1.8960545693370987,
        -0.07299334496775084,
        0.7374145121943467,
        -2.6131588850273024,
        -1.0811578191055398,
        -0.08444867051871627,
        -1.8739864797522534,
        -1.6353823090824893,
        2.547922430335256,
        -0.267683562186513
      ],
      [
        -0.7706919492735749,
        -0.026796455726923754,
        -1.4671023117026751,
        -1.8168714060581679,
        0.8436173681946771,
        0.27993090980032276,
        -2.097186997184131,
        -0.4505447533249111,
        0.26467924062654563,
        1.4249764070833075,
        -0.42816257261952506,
        1.6106824797448025,
        -0.7734377299728157,
        -0.46458911731118496,
        0.15854924490845607,
        0.6257706878968347,
        -0.45995553458879906,
        -0.9197446228897619,
        -2.9972059085578326,
        -1.5604928361131158,
        0.32061294802973517,
        0.3006078436240219,
        -2.297642427046599,
        -1.3886343628944613,
        0.6985878777924133,
        -1.693287679202665,
        1.2816676240245262,
        -0.7050323104534886,
        2.077224589633832,
        -0.9941032405960455,
        0.4572071081730314,
        -0.7704891447355711,
        0.2166503693913295,
        1.7969242070889062,
        -0.7522151151741645,
        0.6559578778315456
      ],
      [
        0.9699665203117457,
        -1.5666758547166655,
        -0.43799347685327567,
        -2.00122835267059,
        -0.4448364088039354,
        0.06042067456118351,
        0.5589304767018574,
        0.8368232976614749,
        -1.9437088579867257,
        1.6717556899732033,
        1.090927952615882,
        -1.1477625460191563,
        -3.3641476309525666,
        2.1609926954206586,
        0.7758704338547278,
        1.525670746390888,
        -0.7654936727221446,
        0.09426995259656847,
        0.10407098450413572,
        -0.5249343286667221,
        0.30866527097766483,
        0.6922937238862074,
        -0.12344029901660028,
        -1.601483291386717,
        -2.057104271180668,
        0.2502262712128525,
        3.431301329346237,
        2.364066611565142,
        1.8745768571216117,
        -0.908955516813434,
        1.4462676496897084,
        -0.2301473784019256,
        -0.548808117207705,
        -0.11768037885033414,
        -1.806426033423919,
        1.1290739888556827
      ],
      [
        0.16987787417740702,
        -0.28341844346392364,
        -1.410270104271652,
        -0.28775501174630996,
        -0.8566815328054133,
        -0.8747246206450101,
        -0.5136442793858258,
        -0.7317664515979532,
        -1.3897619214787136,
        -1.8534881993412589,
        -0.8861407502444828,
        0.3178649294257315,
        2.300086737066559,
        -0.8422039389347142,
        -1.0039733286011259,
        0.22063453785573545,
        1.5012816302049197,
        -1.1020131838432796,
        0.31631303272271083,
        0.9360795862882352,
        0.817347323970654,
        0.003928366619195408,
        -0.6522835714054438,
        -0.027453105658653987,
        0.34906885282148403,
        -1.6309916916153453,
        0.8911815200002784,
        2.502637295064622,
        1.333618606194446,
        1.5814964278961183,
        2.1459206030365983,
        1.192942460930367,
        0.10950865153112119,
        0.5365629400578356,
        0.5214389429117807,
        0.8920968987240389
      ],
      [
        0.03526466425169275,
        -0.8216470405571347,
        -0.208491408368893,
        1.1389100443041449,
        -0.6206618949874592,
        -0.2942949510194761,
        -1.2784799411993302,
        2.2920134770653786,
        1.0717870615122158,
        0.0778609487597523,
        -1.7178340112141215,
        1.2330558625612007,
        1.5053382895395617,
        -1.2153544556426654,
        -2.3774946470120493,
        1.4901052113765996,
        1.8901454027999263,
        1.5915591634190405,
        -0.5844411543642015,
        -0.3957482836103777,
        -0.037962633547084686,
        0.14198898866900228,
        -1.400529359283421,
        -1.1954257143413594,
        -1.3802979551976835,
        0.07326681403754981,
        -0.8810824302523446,
        0.811185149980094,
        -0.12816106936707955,
        1.847162693488065,
        -1.704454487458181,
        0.12951637400624771,
        -0.7682328191316586,
        0.03374677961329647,
        -2.302062437940811,
        0.366768419841127
      ],
      [
        0.38398630424648417,
        0.40885870824000237,
        -1.566644036928728,
        1.112904078332077,
        -1.8699452610105034,
        0.1989627380584459,
        -1.2872755334366435,
        0.16987054873569085,
        0.4488223928916055,
        0.09015453928244249,
        0.8476923127431178,
        -3.3715586172515817,
        1.5633603343689708,
        -3.0001210360779487,
        0.16819699799195767,
        0.9876278791922336,
        1.6861921189511835,
        -0.47782421058851304,
        -1.5264816713735196,
        1.1568238656816205,
        -2.1662913315951196,
        -2.453578636301536,
        0.4432891644729519,
        -1.4481013780522194,
        1.1203828586790967,
        1.448641733964836,
        0.130694922345991,
        1.3463653202868708,
        -0.5408805762672879,
        -0.20776961891113685,
        -2.433214430884925,
        -0.29171731701238474,
        0.17094341062545715,
        -0.024446110769107653,
        2.898309547193784,
        -1.0282135099100507
      ],
      [
        0.20184075321523517,
        -0.15460022416348523,
        -0.5586830342468931,
        -0.17143017854756126,
        -0.29433345291812035,
        0.03459962672411844,
        -0.6110667201843758,
        -1.0241390210437868,
        -0.22497757746806576,
        0.34921693389801617,
        -1.1751079847369184,
        1.0959668441526622,
        0.23475783011966203,
        0.1610697071644824,
        0.2127941156940771,
        1.1944215804732372,
        0.024134296257275114,
        0.9712136082918114,
        -0.8289944017365591,
        0.5614577250475528,
        0.08366848264323205,
        2.069501021798227,
        0.003976199482090213,
        0.5811946474767438,
        -1.053607334946679,
        1.6648710763255135,
        1.8994400027408673,
        3.195885563190868,
        0.22085186876042545,
        0.6067571343843541,
        -0.23180655251849372,
        0.3383935119692694,
        0.11190827303115848,
        0.8257740173507636,
        -0.007018900274249879,
        -0.7050615412650025
      ],
      [
        -0.5155818517357649,
        -1.7145413086623302,
        1.3556943940521076,
        0.05791306334379284,
        -0.5540334189589181,
        1.4382244398613941,
        -0.2303758239033363,
        1.916553364855033,
        1.0955493613229894,
        -1.583894282170845,
        -0.37837198572031056,
        -2.323400379711756,
        -0.9355105894042395,
        0.7377372172493071,
        -0.2248260960788475,
        -1.7618487293116971,
        -0.25677823123916466,
        0.8010927687585272,
        0.09129748932851094,
        -0.41859913042968994,
        0.8509066638574201,
        0.8016935668246151,
        0.4749691813330904,
        -0.21316859100463473,
        3.101548268164525,
        0.05245683947936042,
        1.8975192694781444,
        -0.3237870783467692,
        0.28258494161632813,
        -0.39277344394961083,
        0.6169794502631951,
        -0.8807383179574251,
        1.4474462110721422,
        -0.9717234703596879,
        0.7589304717657392,
        0.16215312576564636
      ],
      [
        -0.7621278423569582,
        -0.07030670550591152,
        0.5891929635872118,
        0.46146296547246207,
        -0.8401471258160631,
        0.22745025628235852,
        -0.8791233986603024,
        -0.3594560272394368,
        1.54413145964043,
        0.928337383022323,
        2.2320700626345213,
        0.24928563222774203,
        -1.9158367223609223,
        1.0679536432943728,
        -1.1931809505273616,
        -1.855913188912659,
        -0.6614477067777504,
        -1.8488940116827897,
        0.24454877416882942,
        -2.667281133697211,
        0.7699353580558038,
        -0.8732955711448238,
        -0.6776208032531279,
        -0.33691354204108676,
        -1.0237659237042316,
        -0.3918465012144762,
        1.696156070830006,
        0.009985987179676714,
        -0.49945479207096355,
        -0.4512069910330708,
        -0.14967435644952484,
        -1.4215988431236646,
        -0.032942043650815114,
        1.243318957226743,
        1.0406892048290628,
        -0.9506006302297902
      ],
      [
        1.096182939160379,
        -0.850986015192273,
        0.4977969088968121,
        0.7941197960004842,
        -0.6989270462720991,
        0.9143961362428074,
        0.23234573660164923,
        2.008007478656022,
        0.3294848164804338,
        0.05191429937966337,
        1.482922281765772,
        1.102756827731997,
        1.4409566078328535,
        -0.5335484820972664,
        -1.1457710828593142,
        -0.7690829674936536,
        -0.42598651198430626,
        0.7989088339309786,
        -0.2075797433325951,
        0.8586647010539474,
        1.3344300042056545,
        -0.3923709122538436,
        -0.15526707194562916,
        0.1761733982509317,
        -0.4982644068841538,
        1.0538732760007936,
        -0.3533312661564853,
        0.33396884079793127,
        -1.7320868354162544,
        3.3998122963882187,
        -1.3245297105508183,
        1.1576737548698284,
        0.7226507493465921,
        0.04061300259045822,
        2.0486257870594313,
        -1.6487341332354075
      ],
      [
        -0.06638221799197322,
        2.124684961615825,
        -1.4006878246109833,
        -0.2219759780600181,
        1.2210286795209577,
        -0.542910773197762,
        0.11714567794837534,
        0.7049158070554303,
        0.42766444149345767,
        -1.0622057807540712,
        0.10544598793638021,
        -0.04614999575576303,
        -0.9745073750024937,
        -0.4920660672274378,
        1.1147806042578554,
        0.8743723395997219,
        -0.44959505853398596,
        -1.8934486930546206,
        -0.29193960163154375,
        -0.005554310665702465,
        -0.5450658057439141,
        0.22359721659222917,
        0.4595704945683367,
        -0.3585800724185345,
        0.8696379834817187,
        1.492425226901751,
        -0.2718791700462105,
        -1.8318972286298452,
        -0.29803993758426073,
        -1.0886097916446167,
        -0.23826437243737233,
        0.4309295404860159,
        0.08695588482137778,
        -1.3467683387422216,
        -0.6294719069534745,
        0.16900005780102667
      ],
      [
        -1.0697127057670006,
        -0.6701829447908332,
        -0.6884043661050667,
        1.0527420075584824,
        0.6767308496794284,
        0.8018453322630252,
        0.8440118327494679,
        -0.6728520242058778,
        0.025938601874332508,
        2.0131989840333193,
        1.8716317738640538,
        2.531820726894225,
        0.38008563784685395,
        0.3742213497575687,
        -1.1449844827312616,
        -0.4870717264676269,
        1.0006966644171753,
        1.1288595263629653,
        -2.39088039915191,
        -1.0298108091377776,
        0.12193075529147719,
        0.5967123085442178,
        0.7233391248440604,
        1.0807340923117563,
        1.364392144662753,
        0.5556063283087086,
        -0.8857875760640693,
        0.700668680597083,
        0.7938850123327904,
        -0.8733543876940109,
        -2.2149225834295487,
        -0.9141044890251142,
        0.5924319776593291,
        0.7837312215621313,
        -0.5976763885319758,
        1.6300722558168108
      ],
      [
        0.11432377182864058,
        1.6208922733032818,
        -2.00218605701613,
        0.43928955324154895,
        0.12376945673433425,
        0.45249334998161805,
        1.8528195360823303,
        -1.4615560034137887,
        -0.711013591424769,
        0.41871098730640494,
        -1.4418195480873546,
        1.2462061847835557,
        0.39983670376313585,
        -0.09637264519668297,
        -1.201126606013289,
        0.2137266661140279,
        -2.2296922428215082,
        -0.43960005021017895,
        0.6116692637840092,
        0.3244858324056378,
        -0.9071840634111651,
        -1.0397307880549667,
        0.35335620840241466,
        0.7504879278835772,
        2.3616292972918047,
        0.10136188278966667,
        2.852997079028689,
        -0.0021708203265219917,
        0.9276165636236514,
        0.36704886204573556,
        -1.0106198528905699,
        -0.22909174565707302,
        0.6319444491018882,
        -0.34791509385555736,
        -1.1848535102046596,
        1.1352190511882867
      ],
      [
        0.5338363034639357,
        -1.2158689395504882,
        -1.538134130513132,
        0.7965735787849796,
        -2.101374205574752,
        -1.5920774854939805,
        -0.2427013884888108,
        1.7421782786795785,
        0.1787525223921184,
        0.670255926563056,
        1.2968858287794836,
        1.2775731894749505,
        0.4998170367710734,
        1.2188011820586746,
        -1.272131622015891,
        0.2983772033215317,
        -0.24421469098940196,
        2.594671495150247,
        -0.625811536338007,
        -0.3042252297142364,
        -0.6590752313592894,
        0.4381782648075457,
        -0.9695868480893483,
        0.5967884290753592,
        0.20335109666767456,
        -0.831226783257043,
        1.5431345988001257,
        0.11327918907677534,
        -1.6968557405946385,
        -1.6207969312014707,
        -0.3984261374842466,
        0.5648908985027908,
        -1.4133268119264695,
        -1.0917444070107376,
        -0.9411823707146455,
        -0.051172155920006214
      ],
      [
        1.0543279787076858,
        0.4021039549599408,
        -1.194563878356407,
        0.9575086341576637,
        -1.014934520576146,
        -1.2673069129494696,
        -1.587642468975938,
        1.7799814496576136,
        -0.0787657500716425,
        -0.1532463679782285,
        2.3008428255519218,
        -0.23785283562382337,
        0.17066481569425931,
        0.04549870039235183,
        0.5822368383886778,
        0.2007119659685779,
        0.656614133299835,
        -0.20330432442751215,
        0.5194141259471279,
        -0.13102317971927244,
        -0.9191958237251481,
        -0.13424231898090128,
        -0.6358572560606577,
        1.113768798369308,
        1.0218002879733816,
        -1.7163727282463261,
        1.0154456705483204,
        0.2787977524398106,
        -0.10304431572563127,
        2.3370829256512207,
        -0.381397823578018,
        0.5855789601553849,
        1.4523612384770865,
        1.0716981502487193,
        -0.27600007215476624,
        0.2094489691790759
      ],
      [
        0.5289567722354265,
        0.9398439748861748,
        -0.0016788350649422827,
        -2.345570633802875,
        1.3316750677742732,
        -0.7167416987713778,
        0.48411704726793625,
        0.4225483355523776,
        -1.9261265397949034,
        1.0890621685120752,
        -0.24853025239924084,
        0.14454739654033455,
        -0.7481745249002847,
        3.0168965420740417,
        0.17799307132742323,
        1.0779506361851021,
        3.173212833085745,
        -1.6544394266184226,
        1.680744448449741,
        0.23777378607080613,
        0.19082750233049528,
        3.2345039330810255,
        0.3857865087468742,
        -0.06679569322988237,
        -0.4532415740287322,
        -0.1600595524693095,
        -0.7976995343115587,
        -1.7027463946293202,
        2.1218572354620098,
        1.3912893470872079,
        0.25575023732864577,
        -0.8461811357655907,
        -0.4256842910432321,
        1.0223428765930394,
        0.4054640205661782,
        0.05485033009267943
      ],
      [
        0.4348434420213334,
        -0.1489047110338778,
        0.601017918152825,
        1.582148482205566,
        0.04049174048696682,
        -1.5912594749725384,
        0.001048173323427533,
        -1.1926257871418302,
        1.3650804075437892,
        -0.5814315822393079,
        0.1926557507203181,
        -1.9420683670109629,
        -0.5487991453193312,
        0.2818657799332791,
        -0.017311200013511573,
        2.9712167122889372,
        -0.5474364903107928,
        0.8198850785139834,
        0.5458393535159747,
        0.08106948031432046,
        1.1718332415789317,
        1.5901218493117195,
        0.45342140822864285,
        -0.719832641497318,
        -1.1956942121563252,
        -0.7287667937164067,
        1.1953729226160752,
        0.6549086711139631,
        1.6028655351590577,
        -0.17176990125442465,
        0.7796403574352011,
        -0.06416120913720878,
        1.361860329865652,
        0.7231878716787608,
        -0.2275868956265703,
        0.21821649935544826
      ],
      [
        2.0629449179042076,
        0.5794862130748875,
        -1.817587074501376,
        0.24627021963727452,
        -1.4177803423069075,
        -0.7637858416536026,
        -1.7013082724727422,
        -1.514391381088213,
        1.8117229662331769,
        -1.47877490535109,
        2.2567674848115122,
        -0.2768552185478119,
        -0.009915247414946766,
        0.7640269822378869,
        -1.6482506600283446,
        2.0208696429901023,
        2.8593263554556185,
        -0.9664040681770139,
        1.3558231968047474,
        0.3871761295870379,
        0.6202768271324015,
        1.3438344493995389,
        0.8518726386882177,
        0.08025781943193251,
        0.331967678443151,
        -0.4459927174676242,
        0.7092662797325081,
        -0.12576259062088904,
        -1.2914425557371567,
        0.6168746010440195,
        -1.4901511689207976,
        -0.7115997096589397,
        -1.0582744106132416,
        0.016441306498518573,
        -0.38701236103978737,
        0.4203879280437709
      ],
      [
        -0.8348980933244973,
        1.0936332873813452,
        1.0063455958957424,
        -0.13365360453110087,
        -3.2292167827370992,
        -0.28483836924601086,
        -0.5182537220473826,
        -0.986528797208868,
        -0.8731690463046439,
        -1.2396912714532846,
        1.7639795436566679,
        0.7034998141561613,
        -0.561295901271537,
        -0.9265280212194725,
        0.9920344318252698,
        -0.565782808337098,
        1.1919860502780426,
        -0.28026202534544287,
        -0.3752860705842919,
        0.03830572828586011,
        -0.17663600180304193,
        -2.627665065256157,
        0.16972326983997116,
        -0.6300970452551055,
        -1.9555820194078977,
        1.2408390732618908,
        0.36035809485490766,
        -0.12770821676043406,
        -1.1174443124685531,
        0.9638886477017252,
        0.004299291663814449,
        0.08628467770393909,
        1.5674408641685251,
        1.256270457696483,
        2.362200961434159,
        0.09161190938930394
      ],
      [
        2.6802861171303154,
        -1.6319709188855334,
        1.0091096752944382,
        -1.075144033589358,
        -2.1285497346123363,
        -0.5968833325019776,
        1.5729175616292694,
        -2.390179728792451,
        2.2950475646585193,
        -2.97713086159503,
        0.7147220267195421,
        -0.5850621316530161,
        0.8593604439542,
        -0.8346968184945505,
        0.45314421333468236,
        2.510886544608175,
        -1.0814550539630936,
        0.7226175948569179,
        -0.8515240891454569,
        -0.7023342807573651,
        0.17996952281417683,
        0.9230450731177424,
        -1.5457152236385132,
        1.630413348536884,
        0.3148670416529387,
        0.7416185419925094,
        -1.840695612767643,
        -0.7552426443651717,
        1.3314619084983759,
        -0.828251816344296,
        0.9523113487297352,
        -1.5652298296561353,
        0.11293341055410168,
        -0.014880403157741645,
        -2.088439515976294,
        0.842079966901337
      ],
      [
        1.7993997873618175,
        -1.02219546901022,
        -1.3264607564049504,
        0.09203493144407934,
        0.37838957057650796,
        -0.5671349593880213,
        -0.03261372309424415,
        -0.8386839470687962,
        0.32271784746515986,
        -2.469021382907584,
        0.7935554906023721,
        -1.2877540261746383,
        1.505211629788513,
        0.6383967119215107,
        -0.5974265384895944,
        0.06783594497427,
        -0.5518975038371372,
        -0.9844291627244781,
        2.410641677652185,
        1.0244503917103185,
        1.7547221923380563,
        -0.05317054807287587,
        0.15299581014196792,
        -0.4421821894920292,
        -0.07646276680354976,
        1.4346873874786124,
        0.3813500452424792,
        -1.4652244284676723,
        -1.5294715907331105,
        0.30695874782407634,
        -1.2282222223529804,
        1.7198531659607572,
        -1.7047023693344945,
        -2.729425613294263,
        2.0523956399080383,
        0.8001922603863246
      ],
      [
        -0.36912969605818075,
        0.14455305969230717,
        -0.8907325259594802,
        -1.7216993611733207,
        -0.6871096037113739,
        0.17807159365909697,
        0.9396887187136025,
        -0.6301966531521779,
        0.32255376156418214,
        1.6634415365077155,
        -1.9162147268624588,
        1.747769191737586,
        1.2735556338237808,
        -1.486015517815649,
        -0.5311104504958538,
        0.0949471081346703,
        1.1554135198840128,
        -1.750753830831921,
        -0.11426079983374324,
        -0.06892420661144005,
        1.2458256388625093,
        0.7560113035640555,
        -0.6043654316294589,
        -1.5193112734138081,
        0.968122872841942,
        -0.13939623782331592,
        0.5043858537939252,
        -0.5011556972086404,
        2.2773043433525078,
        -2.514485275795324,
        1.1991593782096663,
        -0.747264582902865,
        -2.017204721393245,
        0.15813712131922114,
        -0.8926725984913865,
        2.7107135016553814
      ],
      [
        -1.3302668129699602,
        -0.5816034572791297,
        0.20406243637967572,
        1.1163029659039825,
        -1.346516944050322,
        -0.3682111919980332,
        1.7573260954822918,
        0.37757771641964344,
        -0.4075549379134996,
        -1.8956205979931409,
        -0.8145056780005201,
        -0.4527900773649117,
        0.506231807816197,
        3.189349950112036,
        0.8271570191753748,
        0.4670235622714504,
        0.645693496437024,
        1.75128657457937,
        0.45376462138743984,
        0.05165165243500686,
        -1.9386539841443657,
        -0.18999594579022622,
        -0.5374492573882165,
        0.676004888320197,
        0.9553956462116256,
        0.549500024419934,
        -1.542538889075236,
        -0.49950034424115736,
        0.06526297928080001,
        -2.157689581428167,
        -0.27946744170924503,
        2.374081932920669,
        -0.1895318863422027,
        0.23475013772593203,
        -0.06272320612676519,
        2.1230989511420266
      ],
      [
        0.00815418987475054,
        -0.3626656659025869,
        -0.25266566067187085,
        0.8423789285112513,
        1.3624920430421203,
        0.20866135375023864,
        -0.6999592211956666,
        -2.609292899496695,
        -0.4720908907272749,
        -0.4814603162112538,
        -1.4398542285631277,
        -0.00434157565302683,
        -1.8388932519596008,
        -1.7797805415275867,
        0.6203650644190762,
        -0.050962281537838695,
        -0.9944816762727561,
        -1.5429465484076865,
        1.550231817134002,
        1.2982382950409497,
        -2.2441000022616007,
        1.0110549160091569,
        -0.8102468854947744,
        1.1557172383298429,
        -1.8590929753910181,
        -0.7139256067707936,
        1.9717780616823704,
        0.035334415070501064,
        0.02851334915275909,
        -2.696918076740134,
        0.061274884488358085,
        0.7184550904358734,
        0.23597641338482966,
        -0.6133714697960165,
        0.6732052309182083,
        3.061839216864739
      ],
      [
        -1.9622650751821167,
        1.0327559634555474,
        -1.153232653614368,
        2.677466972674319,
        -1.645327129209119,
        -1.1964209808906037,
        -1.963700932922107,
        -0.18140052927931494,
        0.6704359440920868,
        0.015671070014003648,
        -1.8157117827890832,
        1.0399508022778219,
        0.5719545614907192,
        -0.07237634546268218,
        -0.6494074374256206,
        -0.31625231319757774,
        1.2087424987409578,
        0.4423962205115043,
        0.47790493810769463,
        -2.0343923807740767,
        -1.7295415856629006,
        -2.3586976024144,
        1.057498932142036,
        -1.667862584030552,
        0.22107193472553457,
        0.39442753230114597,
        -0.27394894099399636,
        -0.6501844759002682,
        -0.9296838425442425,
        0.21746566672348985,
        0.3952560289604008,
        1.130899284043322,
        -1.694979632243558,
        1.8833900297419168,
        0.45637182844357566,
        1.383431547889086
      ],
      [
        0.8488879622767176,
        -1.4305659745161363,
        0.5769284012776947,
        0.07917494481022881,
        1.3758629091495576,
        -1.4365985517211943,
        -0.2452968169444843,
        -0.5016372690221591,
        -0.7223924703422011,
        0.38764336142475025,
        -0.32549256993237774,
        -0.2184275305513944,
        0.1078096803870466,
        1.5779787377288481,
        -0.8261495025051596,
        0.17216345162221952,
        -0.2893646285344302,
        0.3917488935295767,
        -1.6755144572936118,
        1.242276591922309,
        0.06462197126242071,
        1.816734317083086,
        -1.5935566077273222,
        -0.9809770514876945,
        -0.8659350685077588,
        0.9702140382295587,
        2.199473498347803,
        -0.0756021086787177,
        0.19971215490738453,
        1.8629462700417403,
        1.23839707296692,
        -0.09389953919895543,
        -1.0939859349314074,
        -1.041307004721032,
        0.6881329178886678,
        2.2678868654586615
      ],
      [
        1.3401264950122163,
        -1.3722753480623615,
        2.8150608255368126,
        -0.7400252795597643,
        -0.7713460774996356,
        -0.7019434486233129,
        0.16965604997917572,
        1.3154990187107187,
        -0.6122423367147809,
        1.74179707764539,
        -0.25982060600421364,
        -0.6213776657799581,
        -0.4718845653099074,
        -1.971640497741848,
        -1.7177884985362049,
        -1.6232865145317603,
        1.2150027370536935,
        0.5902404095370946,
        -0.27217057209794465,
        1.5034974156995138,
        1.0363006041753484,
        -0.25692392834361355,
        1.1111153377143563,
        -0.23176459626715726,
        -1.5547937120584625,
        -0.44768010691497484,
        -0.8269791030085454,
        -0.37340509113341835,
        -0.3241600363405691,
        -2.350470466725991,
        0.11959931674207193,
        0.11367336196250187,
        0.0709775326874518,
        -1.5333754915594102,
        -0.8998358563276024,
        -0.7117056467266264
      ],
      [
        -0.5206071349486515,
        -0.3572665899909964,
        -1.5886063376427344,
        -0.05186872905910627,
        -1.528882820526169,
        -2.0969732669777423,
        -0.9094343589488317,
        -1.5494438160855475,
        -0.2509005706216919,
        -0.6216602639311657,
        0.009909934843771274,
        1.3496514205893875,
        -0.959916791461343,
        -0.9225842096833862,
        0.7977825913000347,
        -0.7302503132892216,
        1.020438662695952,
        1.7877384955961606,
        -1.1372980165009867,
        1.1802279224998813,
        -1.1133848784507308,
        -1.3633275416795454,
        0.06482602647109652,
        -0.428612139672064,
        -0.7264728770697213,
        -1.6676629579544409,
        1.112003295613524,
        -0.47926047095519503,
        1.4201151299383539,
        0.21578984225067588,
        -0.25831130517512035,
        -0.4212212057650824,
        -1.3162809439783392,
        0.13481697462881767,
        1.2466175002747752,
        -1.4918613818214144
      ],
      [
        0.8755871837078347,
        -2.075508917118196,
        1.64054371814053,
        -1.139508369480815,
        -2.3260189030816902,
        0.22868692884214095,
        -0.6725859201435623,
        -0.26699751888486767,
        1.5847318479612167,
        -1.1738124423457565,
        -1.3745186543278296,
        1.1968992369146223,
        0.10893609860745157,
        1.3397180731053024,
        -2.380720835362464,
        0.10181360820122203,
        -0.010910578063011494,
        0.7427881576695028,
        -0.07174451433218258,
        -0.42305530801709257,
        -0.4957039683835799,
        1.1755880236230993,
        -1.2727496272236405,
        -1.033491851024516,
        0.9960193931494068,
        -0.8723885664243062,
        -1.3727660136291526,
        1.0823242474709938,
        1.446373456726979,
        -1.8313684293274122,
        -0.09935018210571772,
        -0.07145322504321937,
        -1.4046666536688164,
        2.9215212407749043,
        1.7533133785487096,
        -0.19083479839661457
      ],
      [
        2.0402923262158317,
        1.1913044996327171,
        1.485584592372012,
        -0.7852450499690034,
        -0.40816965475928074,
        -1.1137476731788754,
        -0.731068007318147,
        0.21781746747371605,
        0.8088262775427656,
        1.1470836985419335,
        -2.2435853185928845,
        -1.8984388792401288,
        2.0811612395194645,
        0.36363131269379473,
        -0.7360321196725678,
        -0.5546290499499039,
        -0.9423615436820367,
        0.8120321545847763,
        -1.390341920302261,
        0.8657408910451522,
        1.0016059173255283,
        0.9467184161045104,
        -0.46623238841819037,
        -0.702689529866312,
        -0.0800552532532824,
        1.0111593699359056,
        0.40111794698883646,
        1.125606656173072,
        0.7026124353988429,
        -1.174150744564693,
        0.35578292847210924,
        0.24170224309093205,
        -1.4457299843107243,
        -0.15497704177344415,
        -1.6121311712321391,
        0.03785108114029195
      ],
      [
        0.7307391931402408,
        -0.3839387883651512,
        -1.1917917897482166,
        0.050551654225603516,
        -1.666561281708254,
        2.054480687292514,
        1.4788455704194918,
        -1.1535678285690025,
        -0.06137366522832804,
        1.6349822923052406,
        2.0029139303811307,
        0.6577559625576297,
        -0.22913125322334588,
        -0.038412619964792255,
        0.1022757454468946,
        -0.548129894183041,
        -0.3229258218772758,
        1.5498231935172964,
        -1.6305872467898523,
        2.073509387389669,
        -0.49943099851275974,
        0.5000493203520708,
        -1.859379000048159,
        0.052648256836906854,
        1.656121155538382,
        2.161618924352688,
        -1.8635277526605176,
        0.7615743297735273,
        -0.28063651930298406,
        -0.26974365717786697,
        -2.1879752806215493,
        0.49962193378885256,
        1.2810220615360124,
        -0.9244785307731868,
        -1.223589093279663,
        -0.7235488102775901
      ],
      [
        -1.1657648777285066,
        0.3058059951771881,
        1.2640047782321315,
        -0.35804103233474655,
        1.445855605359043,
        -2.578536552926299,
        1.3823779579077193,
        0.3352451480528654,
        1.5117757910623446,
        -0.4387104003036756,
        1.3865204457246632,
        0.6147337526699844,
        -0.6933854971427525,
        1.279599960456772,
        -0.41199165593169146,
        1.7817040132047834,
        -0.27064652242543363,
        -0.32815707189771615,
        1.1355709256484527,
        1.4864820895106388,
        0.07147278255110713,
        0.4125690827267957,
        1.6212684034896099,
        1.0015081501277565,
        0.005844475170785694,
        -0.8128278772412351,
        -1.1571808945143744,
        1.1728065718725134,
        1.0183344455430647,
        -1.4351079928270218,
        -0.58801347582539,
        1.8102696918500951,
        -0.30342854130818864,
        -0.8413244050542678,
        0.20479706279857018,
        -2.038489507326132
      ],
      [
        1.0052263668229164,
        0.10073056462173932,
        0.302441543527988,
        -0.35829015846997286,
        -1.152897756119625,
        2.8017553869273466,
        0.9493174595639605,
        0.09184148389761546,
        1.7392360690954274,
        -0.5868304408637631,
        0.8713509349136496,
        -1.8330992890854856,
        -0.49482919856412194,
        0.27923376728947463,
        -0.9245936659823093,
        1.3806240652134874,
        -0.7168781051736274,
        -0.031117471540315193,
        -1.0523199334899025,
        -0.1268269394912132,
        1.0605372348289348,
        -0.8863315679759995,
        2.2527280033526442,
        -1.9527209857058676,
        -1.9370973635773123,
        -0.6130391629291341,
        -1.4572001957979164,
        -1.2051507266202997,
        0.9279171873951261,
        -0.7315757949718568,
        1.1276009950848742,
        1.4523696985952872,
        1.2043841348412918,
        -1.4049081810304576,
        0.9323864855956296,
        0.631484666615676
      ],
      [
        -1.4054762018664329,
        0.4866724270794346,
        -1.1330339954639606,
        -0.21242095892287136,
        -0.607025978283046,
        0.9054979105280934,
        -1.2068678363903689,
        -0.33181625332730086,
        -0.1481545080908739,
        1.590758955162436,
        -0.5014058248927291,
        -0.9656896909828737,
        -0.27352831839098546,
        -0.2277215288783177,
        0.19357483989659355,
        -1.5413460084622699,
        -2.4969058210592263,
        -1.638874411917013,
        -1.3854770444683338,
        0.10336987038769807,
        1.0452286526352692,
        -0.7893725117368634,
        0.7914730239556821,
        0.4869051852260727,
        0.6401098107636978,
        2.63785722375405,
        -0.6325694263921589,
        -0.2744134689681403,
        -0.4422752563641244,
        0.8855963642288709,
        -0.3209233621361824,
        -0.7382230090261565,
        -1.0479946877173945,
        -0.04710645165959138,
        -0.2500005393642389,
        0.5287640274893782
      ],
      [
        1.437427163219957,
        1.0039077328659867,
        -0.2177811346641395,
        1.0315901996048478,
        -0.3141812174950367,
        0.92240766538622,
        -0.7640330087766385,
        0.08161249032433829,
        -2.194596278561189,
        -0.38699788818107084,
        -0.16929127082086445,
        1.3346258521187437,
        0.2426818375797148,
        0.2834252363400119,
        1.6910852478736191,
        1.0257177257385477,
        0.6611775073298296,
        -1.3643999222545746,
        -0.1740517044127219,
        -0.546879424059648,
        0.5106673587745809,
        -0.465659392108919,
        1.5429099591897322,
        -2.814335651728704,
        0.7091707087658562,
        0.2232528306657874,
        0.20345555589173173,
        0.5792060921449074,
        -0.7850815931563667,
        1.3995295602383773,
        -0.4589788459545962,
        -0.06603909837192286,
        -2.679613484579712,
        2.420487017715966,
        1.5688513428534991,
        -3.3342574473652293
      ],
      [
        -0.7161909035952322,
        -1.8537012326919742,
        0.41744636179711203,
        0.836561945183722,
        0.7174482312989959,
        -0.48314459374101737,
        -0.1658014258595185,
        -0.5559320026011229,
        -1.119674460385354,
        -2.0292224593681367,
        1.6147101109323203,
        0.49345168897760405,
        0.6275165216051594,
        -0.39186471203617,
        -0.06463081126508387,
        0.8500829489416452,
        0.34111942551634916,
        -0.010697081465291275,
        0.7316084116040656,
        0.06083486555013554,
        2.205825183460821,
        0.43328283247116656,
        0.2520467347883704,
        -1.5500797721926796,
        -0.2904192353503943,
        0.08026444185620998,
        0.2480714073192172,
        1.6943948349791103,
        -0.8230414272070129,
        0.017300867378514214,
        -0.37232654430419054,
        1.5105041242525303,
        -0.5701183536976683,
        1.1912910943693393,
        1.083520907907549,
        2.0083761448062867
      ],
      [
        -0.7744723909440094,
        -0.10835579674784276,
        -0.6635101617946932,
        0.10876748086486497,
        -0.48836140378708864,
        -0.6119813993212139,
        -0.5830483775921704,
        -0.38315242487528967,
        0.39835386544145635,
        -0.8296144310536373,
        -0.2248159591909086,
        -0.6585666043621639,
        -0.7669047264197032,
        2.209219206315191,
        1.4657222251170066,
        1.1394761818286634,
        -2.104073479930125,
        0.4375090673891462,
        -1.7382988549423088,
        -0.6993477755694739,
        2.25876617919484,
        0.6025515501343484,
        3.0723500944242037,
        -0.09443511755509289,
        -0.8238122907597126,
        -1.179894010868909,
        0.2498695013083513,
        0.4166817701582341,
        -2.094348805785771,
        0.6622250368536697,
        -1.133645726517667,
        0.3952277961460615,
        0.09554739272607776,
        -1.4540218776709075,
        1.0119024808528432,
        1.828253663511916
      ],
      [
        0.11186240544872282,
        1.0770883476636597,
        1.2808499479176985,
        -1.0507501771400152,
        -0.9545231731267534,
        -0.6027438558491642,
        -0.042657570958698134,
        1.7427360324494294,
        1.5184236569357066,
        -0.9168341052717381,
        -1.4252316374594969,
        -0.10658691023823444,
        1.1883735115159866,
        -0.2201980390554687,
        0.37659622344992655,
        0.07957864561405142,
        -2.51381463347646,
        -1.7563933683805744,
        1.909059419737173,
        -1.0331693133706426,
        0.8830797375378134,
        0.6476775588169036,
        -1.1534559953924328,
        1.3325543436978464,
        -0.37436668197207157,
        -0.07477306361340101,
        -1.0909478697885209,
        0.6179307589694328,
        -1.2554739691487056,
        2.0600980731987866,
        -0.714805841992295,
        0.02861980635690886,
        0.0609813907381374,
        0.9345765226664174,
        -0.7536241210628559,
        -0.272024318489163
      ],
      [
        0.7583851128037841,
        -1.971745602192259,
        -0.3100938047889823,
        -0.1343274923519939,
        -0.06804294214280705,
        -1.7900858125265302,
        1.0892935698875448,
        0.4453535441316718,
        -0.9664346512351122,
        0.44588105874257483,
        1.632659638829528,
        -2.001791273811124,
        0.15877382145178998,
        0.763408466103285,
        -1.4732927371883349,
        -1.703719511964371,
        -0.54221321893051,
        0.35989124327976685,
        -0.670998352914007,
        -1.3123048102619816,
        -1.6120336942197044,
        -1.056886563135554,
        1.4150433436302656,
        -2.562477938881252,
        -2.60207600122892,
        2.370675593662332,
        -0.47445157224408846,
        0.46933345127484877,
        -0.34251223700886646,
        0.8222953673900083,
        1.2584262107300874,
        2.352583675656807,
        -0.7058868018010894,
        0.03690584467168053,
        -0.44276071996263217,
        0.3890987121354525
      ],
      [
        0.6817591290430891,
        0.2401911627393563,
        0.18615756427636504,
        -0.24462516349988356,
        0.8303784553598774,
        0.5010544847370239,
        -1.3576689358432417,
        1.6800076441603817,
        -0.833305802503169,
        -1.1102560961564143,
        -1.4851897910176153,
        0.5237035342024786,
        0.16686717583551852,
        -0.8505063767463489,
        -0.2572552404769413,
        1.2349631420428626,
        0.08090023160038184,
        1.4782542364138391,
        0.29477858253257755,
        2.364438664675631,
        -0.7130617289409538,
        -1.0148004568999534,
        2.2255943494238046,
        -0.46420414613532346,
        0.7489332523916983,
        0.7790539703490259,
        -1.3369737832236093,
        0.9320888017333311,
        -0.5724967688496004,
        0.32014488279089326,
        -1.5963304838466108,
        0.543014082658031,
        -0.003672969937635074,
        1.5577395161642964,
        -0.5192688860499652,
        0.855380092887142
      ],
      [
        0.1285476734459832,
        -0.07112987784524294,
        -0.6944153930502096,
        -0.7284496970801172,
        -1.2667821734229805,
        0.961129602926665,
        0.6249696094544164,
        -0.6790865898029266,
        -1.0522398294691842,
        1.138709216612152,
        1.10030058075904,
        0.15218324651899862,
        -2.459392843049108,
        1.7572788148860048,
        -0.07868628521002938,
        -0.8300733593553152,
        -0.9499425655087821,
        -1.2007003674857735,
        1.0038909447238213,
        -2.1678290747157334,
        -0.13668703236641422,
        2.182070669870888,
        -1.9248800048373382,
        0.4054459180206105,
        -1.3409597831906415,
        0.7271054849746041,
        -1.0997943251711155,
        0.7930570766327946,
        -0.5542419688604203,
        0.24054944393655253,
        1.4699869235919698,
        -1.2752275311492092,
        0.8830587923249313,
        1.0586278999447494,
        -2.36093720069518,
        1.917321722501673
      ],
      [
        0.43199796275432695,
        0.5383788974821249,
        1.0038228517070835,
        -0.6498235833998305,
        -0.6834854494672309,
        -1.2124465446394288,
        -0.9886620740531878,
        0.28041879508110973,
        -0.1474856881905085,
        -0.11062068483894642,
        -0.27782875493145,
        2.533201096010512,
        0.6087729694078069,
        1.4833626812467322,
        -1.1514899350277892,
        -0.6916118981143026,
        -0.7166744130085296,
        -1.3139755757718374,
        -2.3631345213289556,
        -1.3012037256162097,
        0.3093914450764927,
        -1.268273211103202,
        0.023271181696675206,
        -1.8375782917401928,
        -0.45639576692402123,
        0.7727858630075545,
        -0.00037699240448846994,
        0.908771511271008,
        -1.4670086375014793,
        -0.29661163471352653,
        -1.0052266664201097,
        1.2286881775058218,
        -0.5353040429588539,
        -1.0721453133167878,
        -0.04130441701248047,
        -0.21327377690355134
      ],
      [
        -1.7362208932376508,
        -0.60561510334914,
        1.6094280316630465,
        0.4166982073572895,
        0.7184612501104998,
        -1.5559529921767916,
        0.051938298259933034,
        0.5958964338251297,
        -0.8821201927054027,
        1.639858131242744,
        0.6948367230294575,
        0.5465016041327108,
        -1.359710457804661,
        -0.7578069439543111,
        0.8925922171140517,
        -0.4728495082807253,
        2.246617488849154,
        1.0647049142358933,
        2.099953943362946,
        -0.5925713701269619,
        0.4737692017959151,
        2.6921674348988347,
        0.0073914805861997135,
        1.1042198451761425,
        1.0645950593797489,
        1.8613892358659556,
        -1.0394770345196342,
        -0.41444014584642586,
        -0.5860292800129568,
        0.03453910004214232,
        -2.1691745059332788,
        1.342869079023864,
        -0.14148393689167876,
        0.38763255251200696,
        0.9239398703066545,
        -1.012241428363647
      ],
      [
        0.021370612763146713,
        -0.4643786567209477,
        -1.6846332872117609,
        -0.45534624511414734,
        1.213488650159861,
        0.513407809993306,
        -0.19061851076255343,
        0.9303376763782943,
        2.186121081932284,
        -0.677431921573291,
        1.637624100073745,
        1.348169242754094,
        -1.092612940641274,
        0.9142388897845337,
        -1.06674177304737,
        -0.3477068466172189,
        0.7369019268744936,
        0.9903481381931686,
        0.5624723903445809,
        0.6360136395710209,
        0.8542851140973244,
        -0.39691932711264205,
        -0.7915942480954925,
        0.44757876706105393,
        0.30441900502482944,
        -0.45666323307239254,
        0.4154557478210392,
        1.3054898845844682,
        0.8004870389531469,
        -0.850811468202916,
        0.5012048258526356,
        2.795873343476361,
        -0.18960385344214817,
        0.25451417727869474,
        0.005735433709942677,
        0.15258462032564832
      ],
      [
        -1.1675434111856073,
        0.6590456369287837,
        0.7990014862775868,
        -0.6982691556157592,
        0.7340934267145279,
        1.2339302935148444,
        1.728143409587158,
        1.4779606505616276,
        0.05091600110089615,
        -0.5660679107091481,
        0.9778986344595096,
        0.8687774422132828,
        -2.0631929562116205,
        -0.7714964493320751,
        0.23487026565320915,
        0.7701572681986995,
        0.3237010530432994,
        1.99569380089357,
        0.15444036309706224,
        -0.6266828378539528,
        0.9843076859526733,
        2.0824487094556376,
        0.4752249795188999,
        -0.027129354773736482,
        -0.09256040800768299,
        1.572849598265406,
        0.34343273678438063,
        -0.8026033610271638,
        -0.9554660482306685,
        -0.6450891942816657,
        1.1827411059636208,
        -1.1666172901229555,
        -0.5746167456310686,
        0.028714379740507986,
        -1.0499340508969293,
        -1.425955207420509
      ],
      [
        -0.9542166670775857,
        0.8366179521621409,
        0.07833687131147661,
        0.029904267768644122,
        -1.6012781293295615,
        0.0029335997715709107,
        -0.9629367869567123,
        1.4416933601684518,
        -2.155904198776355,
        -0.9594478701322119,
        -0.745583658626562,
        0.15668541524455976,
        0.48729420253039896,
        -0.25941290386353283,
        0.3772977347053626,
        -0.32848992074123323,
        0.8506479157540914,
        -0.4641629791113119,
        0.16044411064082953,
        -1.5045071751515975,
        -1.9211523103410917,
        -0.9772702805346042,
        1.6186178971979093,
        -2.647782335761619,
        -0.22146664373205677,
        -1.4902762032313546,
        1.7910654279398717,
        -1.1121434250997562,
        -0.5084294970794915,
        -0.6469510776754716,
        -1.1682685269882305,
        1.00606306060883,
        -0.34529731785403045,
        0.5252571812562334,
        -1.3454175027529238,
        -1.7745718084494013
      ],
      [
        -0.5805088809758171,
        2.6242997543734736,
        1.9305922969241849,
        1.1920734371924775,
        -0.145073460918089,
        3.0860053478393823,
        0.15052631701615657,
        -0.2810530083942628,
        -1.1164581402918208,
        1.0247244732227156,
        -1.969474002801694,
        0.23321640665333587,
        -0.30099105279969596,
        0.9825388581092587,
        1.220158833112153,
        2.202551448489097,
        -1.1573972151911165,
        -0.0662056478364417,
        1.3240930547136571,
        -1.8912375852981445,
        1.2969305976912706,
        1.068996543765885,
        -2.0600150971571445,
        -1.4349730348243048,
        3.0331232613463115,
        -0.6185341245939295,
        -0.40238467419960733,
        -0.27022353512107183,
        0.639743577657312,
        0.5874962856020283,
        0.33875025949225257,
        0.06378488378393728,
        -0.42432801795357256,
        1.7316441553388169,
        2.9638522582524085,
        -0.6583696617010725
      ],
      [
        -0.6883750376140316,
        -0.8451336233134759,
        -1.0389122153445756,
        -1.0775226466591878,
        0.5359632239271687,
        -0.5935352256804245,
        -0.50679733650572,
        -0.18217790401722572,
        0.940049177412764,
        -1.0386474497349198,
        1.3916752401095125,
        1.6652039629558983,
        -0.7972279421716296,
        -0.32830355701480374,
        -0.028668617159055814,
        -0.987159270775512,
        0.802338930612078,
        -1.7625223545391866,
        0.584429185606977,
        -0.5610208205793527,
        -0.08411268142806781,
        1.5019427585861287,
        0.423005879716185,
        0.059628798185494,
        -0.041483095299834516,
        -0.27282000300716835,
        -0.035884556363566356,
        0.2800052269321838,
        -2.160860557309216,
        -0.36170272387859365,
        -0.17328021005414745,
        -1.1855192356433113,
        -1.3939098821377505,
        2.556358230624378,
        3.0607258626609872,
        0.5070037207008898
      ],
      [
        -0.946248582714712,
        1.6462915862711651,
        1.1576430982986454,
        1.6546161387064873,
        0.7650104488919415,
        1.3663253378620273,
        -0.22167774585513045,
        -0.9236570080075055,
        -1.1340360808627776,
        -1.2843435658155113,
        0.04899810001902236,
        -0.05596776170166603,
        -0.22065575394347986,
        -2.4982061914138978,
        0.19412763209247993,
        -2.09811077955606,
        0.6418334466110618,
        0.586917330238349,
        -1.5629412310926436,
        -0.13749508614656777,
        1.4233096967538317,
        -1.328710469736248,
        -0.07489520461487921,
        -0.47346474335981775,
        -1.9841188180500884,
        0.5567216053790808,
        0.129724676858122,
        0.09007576769611134,
        1.443807003440998,
        0.03332246003737645,
        0.8635278870362483,
        1.3614843891546229,
        0.4491964966099382,
        -1.7835729612978175,
        0.6287272972328348,
        0.7283641664786381
      ],
      [
        -0.5281569110319793,
        1.45144704644954,
        1.4109429949073304,
        2.361646493707937,
        -0.4651742174058378,
        0.6783668450302459,
        0.8492956414174099,
        -1.7711735119173704,
        0.5336855928513208,
        0.09375423100398801,
        -1.5258090455195554,
        -1.318851624872895,
        0.764095459550469,
        -0.17077806523358222,
        1.1307559227936324,
        -1.0212532975915014,
        2.2358599862234345,
        -0.629737665125813,
        -0.7865981607818185,
        -1.2710512561793308,
        -0.021597378585913273,
        -1.2622615855168984,
        -0.17576803433924912,
        -1.1384108581980028,
        1.2855800771752814,
        -0.15260172211784861,
        0.10834078847236106,
        0.49377937443817277,
        -0.5555923628803986,
        -0.5440772646502825,
        -1.4231061947557315,
        2.216983698539727,
        0.3997720998470779,
        -0.7022087396034714,
        0.1954190103739083,
        -2.6709562385574053
      ],
      [
        -1.672332149388942,
        -0.870725070782598,
        -0.546207655178851,
        -2.323652502653214,
        -0.5005558062337755,
        0.5174620882639197,
        -0.025536098312584406,
        1.1844068312441964,
        0.5212297755503954,
        0.5269663960020984,
        2.1565339817742917,
        -0.4886764188336249,
        0.24867175871897626,
        0.4192938063380495,
        -0.37818746691959243,
        0.6254894610988799,
        0.859205823039874,
        -0.3988715956103975,
        -0.18198901716532362,
        -1.926966990715888,
        0.36441677921231275,
        -0.9755437902748149,
        0.9287387320621209,
        -0.43518566401468706,
        0.45525827500766114,
        -1.5552447294978478,
        -2.6602111442968597,
        -0.16291486682778436,
        -1.2026954546255688,
        1.5909165973417716,
        -0.1663949569204767,
        -2.23043379704492,
        -1.027958363935156,
        0.1633189676939946,
        0.14360226871587678,
        -0.3413756806885136
      ]
    ],
    "layer4": [
      [
        1.354543497482941,
        0.32955191739520434,
        0.39535913537595635,
        0.5415923512306393,
        0.5303990286632777,
        -2.432793417229922,
        0.4311313189384287,
        1.4490636163836565,
        -0.19310581378626787,
        0.21252380962995607,
        0.06255857665124545,
        0.11163009592966244,
        0.910248776015873,
        -0.3942367131369971,
        -0.8159426993880493,
        2.6229362334952153,
        0.32616566518069856,
        -1.4268540899156765,
        -0.08930110213042908,
        0.23978485601381788,
        -2.2456002479472987,
        -0.34524000813400973,
        -1.2661874025104582,
        -0.4187238958909968,
        -1.3984347486524504,
        -0.7031571225167778,
        1.1839591539700556,
        -0.772118511705656,
        -2.329214855691818,
        -0.6551621507522994,
        -1.78433018797944,
        0.7137315223041397,
        1.0048727036851326,
        -0.010760687273093433,
        -0.5692842183814124,
        -0.4204789018483145,
        0.7945950618811,
        -1.4588034630746771,
        0.6054274581682345,
        -0.24692998471357577,
        -0.9265382598872063,
        0.45623862409735744,
        -0.8082116490880629,
        2.7706765639321604,
        0.45852439414297097,
        -0.010631255433357785,
        0.8151714458771074,
        2.201387739340165,
        -0.9228016437386712,
        0.6194725798892191,
        0.08871838156096777,
        -0.24532323353800012,
        0.37459956759725627,
        -0.06538394674231411
      ],
      [
        1.7892640168364962,
        -0.08959446380585989,
        0.8403791674043671,
        1.376185906368652,
        -2.5192811090420033,
        -0.09996813364148402,
        -1.2980496036348843,
        1.8116974401918,
        -0.9821747234498289,
        -0.6703204894067177,
        0.6375230614621867,
        -0.6810004493011078,
        -1.7193329783525944,
        0.3759707001638163,
        0.49113325709054145,
        -0.23623295138780587,
        0.14453963544942414,
        -0.005101531515719678,
        1.7303928066888523,
        -0.16457325660848163,
        -0.8191518734213425,
        -0.0025145479269721516,
        0.9574044838280122,
        -1.0081992696002615,
        -1.2840938729328633,
        -0.1538129469893038,
        -1.51900631628994,
        0.5780815271326409,
        1.0430824107077712,
        -1.6375511359222925,
        0.9524005743484322,
        1.2357795335515915,
        1.9499042710707377,
        0.17139366047940965,
        -1.3298322102829605,
        -1.1546619788825867,
        -0.2401458412718344,
        -1.5779390283748769,
        0.45372588367104694,
        1.2811380721333288,
        -0.709792471167534,
        2.7266341252719695,
        0.986540476339531,
        3.6086394217091198,
        0.7090834731626622,
        -2.6550807541410664,
        0.03258211671956544,
        0.3464681893438045,
        -0.7663950502251525,
        -0.056083268216845734,
        -1.937896220075539,
        -1.5740534614264061,
        -0.17214812061817425,
        1.728271091955151
      ],
      [
        1.0576848680411626,
        0.12448833223824234,
        -0.500315574799196,
        -1.176440337326341,
        0.4468696532386207,
        1.308844351796665,
        -0.44378045355370077,
        2.5721139848601955,
        0.08663671384158624,
        -0.21381352029101316,
        1.7783009257029234,
        -1.3171209425551829,
        -0.3595673520213607,
        -1.554519455178237,
        -0.7240700727771779,
        -0.11682599884601683,
        0.9945507622304409,
        -0.21669344504916246,
        -0.8054125065731158,
        0.9782285015695092,
        -0.26293371844023,
        -2.0265968412550808,
        0.8576162228462998,
        0.6249158545050156,
        -2.017848406384549,
        -0.33460465805757494,
        1.2090836428232299,
        -0.3078456065303586,
        -1.0725335395023339,
        1.7513615995659784,
        0.2616030670983985,
        -0.604979001951459,
        -1.5546102920725355,
        0.5468939974801728,
        0.4116769918595852,
        -1.0912922905735298,
        -0.35911042895796264,
        -0.674239322433361,
        -0.5240032260671273,
        -1.5856175000035544,
        -0.9781778975932311,
        -0.39006256182786714,
        1.2870438197563987,
        0.12413967155542306,
        0.9175506611147151,
        0.2064198125745202,
        -0.8560064952992921,
        -1.6641431084755975,
        0.2051665823527278,
        -1.697343919433993,
        -0.5129012194556071,
        0.7559816079869872,
        0.6436712878037808,
        -0.1879483584767076
      ],
      [
        0.9650810178611705,
        0.01376502550114957,
        1.9358945778694945,
        0.27745801010985355,
        -1.8310728297199224,
        0.9928087112142315,
        0.5616434149946364,
        1.3548559781419554,
        0.6942641037434362,
        0.8897423462391061,
        -0.5528481471466803,
        0.02714623006216838,
        -0.4755126886516209,
        0.4644907833207873,
        -1.2061060946055144,
        0.7767354796521277,
        0.6019419863694137,
        -0.38247067669568335,
        1.9732545463849627,
        -1.9909665661626648,
        2.2446529584404846,
        -0.6442889826797505,
        -1.2985536987379565,
        2.3320648439464358,
        0.4818350614673341,
        1.927812047639838,
        -1.5074067582942332,
        2.8790435228968785,
        -1.4914664808089735,
        0.9064235925684981,
        -0.9773458731255741,
        1.6050894290378843,
        2.656028132802729,
        -1.583553707010905,
        1.3299634101904756,
        -0.7670856847371165,
        -0.6694006427724445,
        1.3310274087442941,
        0.6357490337665367,
        2.8844571132662136,
        -1.6134965639206993,
        2.4273753421819455,
        -1.570552287695826,
        -2.3318582118101214,
        -1.477335792452171,
        -0.5040159061489025,
        -0.23469241062512022,
        -1.1487524058587988,
        0.9768076970933072,
        1.1968802831538297,
        -1.470690841524006,
        -0.3449671895040584,
        -1.3598546983078987,
        0.1739360355606192
      ],
      [
        1.5189392806645279,
        0.9585188536381988,
        0.16581860326240974,
        -1.6311931761389264,
        -2.2543547287084964,
        1.3584989300490466,
        -1.3046697229163344,
        1.1015586162127937,
        -0.32909760023964724,
        0.05183707423133865,
        -0.4652217696860617,
        0.4363071833771105,
        0.5867772950847043,
        -2.6958890676728386,
        0.40365207791030977,
        -1.590787513203577,
        -0.003780854278527437,
        -1.91501073046721,
        -0.6142578513079059,
        -0.041466492367032835,
        -0.6535137445821674,
        -1.2001443615619105,
        -0.6356725960524887,
        -0.7048452525390084,
        -1.0105563022864814,
        -1.8920045561613168,
        0.09983239918564654,
        1.4694004408484969,
        1.5332632621431879,
        0.23019135818872205,
        -0.8437826350854012,
        0.17958389745097994,
        -0.09972203607364587,
        0.7139635600784511,
        -2.3297853065858227,
        -2.0185776413554093,
        -1.7955306073234165,
        -1.1078652340676964,
        -0.15223118889434337,
        -0.6046098713854462,
        0.8228152543695358,
        1.243220912452171,
        0.559942916136963,
        -0.17100769391007162,
        0.15492022979778627,
        1.2414580151436163,
        1.3004603838861521,
        0.7273258240464292,
        1.256956255258375,
        -1.3541238719523636,
        -0.6511057587057887,
        0.28330184024856314,
        0.36332363382768745,
        -0.11641216217736355
      ],
      [
        -2.274558383997211,
        0.59106911240062,
        0.3958583081285946,
        -0.5834753234380599,
        -0.4772482696819014,
        -1.404626533484219,
        -0.8681123958218925,
        -0.10397445859962783,
        0.4413329888002771,
        -2.445039675569789,
        0.004065799801092948,
        -0.5695367261879486,
        -1.8656352235723421,
        -0.9288838797527114,
        0.6876526927045449,
        -0.49461508535169413,
        0.44112421478772185,
        -0.27931425041709246,
        -0.31271113416669916,
        -0.641956863454164,
        -1.3888947468249306,
        2.3857197628235096,
        -0.7350723416111086,
        -0.7752669391839337,
        -0.8214762015428533,
        0.6702931024315228,
        -0.12473069072276816,
        -1.4046040449977146,
        1.0710413804160144,
        2.674495730858831,
        0.2047917205096224,
        0.9212662289119588,
        -1.2204368825158478,
        0.6901983719813738,
        1.4436505671331725,
        1.1682591611409037,
        1.1214601160998439,
        0.4977299429718426,
        1.542123669134149,
        0.5798739111752171,
        -2.2701031167196164,
        0.7806482838912611,
        -0.22364875226807499,
        2.1729551097460944,
        -0.24348641965059448,
        -0.5225031678626774,
        -0.9095720521996703,
        0.3691601541917635,
        -0.4701508982198096,
        -0.7836674094079185,
        1.6047886480130922,
        0.5989457423683004,
        -0.2550737207682916,
        1.011350535315445
      ],
      [
        -0.22407762270577578,
        1.082497707315089,
        1.3284263283008433,
        -0.4851784495618915,
        -0.8506180632839059,
        0.13604351092618333,
        0.9764786168316143,
        1.558843642978352,
        1.135334698488821,
        -0.027990397807086096,
        -0.6148445177329496,
        -0.23518450208775324,
        0.39759166470381824,
        0.379022627852238,
        -2.4157911574508986,
        -1.5678590000739374,
        -1.1420539368972162,
        -0.8734522309104208,
        -1.2233493299386176,
        0.3890374673468689,
        -1.7749113963466994,
        1.5347569993840724,
        0.6226831109528652,
        1.0793664619316485,
        -1.5430054140948752,
        0.8352414493949294,
        1.426985920524084,
        -0.7592151577515334,
        -0.2519847853012275,
        0.09454196342714838,
        1.2564669473674457,
        -1.1060178569437666,
        1.1229429131279658,
        0.5409156896946524,
        -0.8804647025384705,
        0.05587536444900205,
        -0.5450786617497441,
        0.34696486572953444,
        -0.24294643210080227,
        -0.055258562914437426,
        1.1226186146662098,
        0.427483769442821,
        1.5756590107374893,
        -0.13084366292328706,
        0.11797559602366153,
        0.32699034444411607,
        -0.2748094739927259,
        -0.8464284232858664,
        0.863492478323242,
        1.7792354817004548,
        0.5375520009188518,
        1.4789829957752993,
        1.8219357650722716,
        -0.01813814748189298
      ],
      [
        -0.713310367329386,
        -0.5940287323120006,
        1.0824482370345705,
        -0.9210183621582897,
        -1.6088627303648697,
        -0.17152147215344873,
        0.00492164204489009,
        0.7959515334777381,
        -1.883094992022268,
        -1.3661081207346515,
        0.5149609900155717,
        -1.190819821540116,
        -0.10607780263919134,
        -0.16791413340686726,
        0.1556019310278773,
        -0.9036263359546193,
        0.26555089843389085,
        0.10247397717945894,
        -0.1592800652046605,
        -0.3561928278292453,
        1.9841517490798268,
        0.9261885835395864,
        0.7843550233492133,
        -1.1074902297115379,
        -1.6916070687945783,
        0.9716751142159278,
        0.16548219298953398,
        -0.4243252841059701,
        -0.03426543203403928,
        -1.7710108961264661,
        0.2786699446463062,
        -2.1481617073458836,
        0.04703664310264579,
        -1.4612188096345098,
        -1.8622143015965598,
        -2.8790671948962356,
        -0.3271651133634191,
        0.7192885475799033,
        -1.1066045945760694,
        0.9907278601340738,
        -1.0158716966212713,
        0.017554476039899077,
        -0.47845527852800906,
        1.552393960931498,
        -0.24477633811259594,
        -0.11412747657922151,
        -0.002508240661970302,
        1.2713631252174373,
        1.8117859254557451,
        3.1641967038791208,
        0.48571703982108066,
        -0.8805878999428135,
        -1.7050541480078356,
        0.7301071226459898
      ],
      [
        0.12043101033976811,
        -1.0381443734194196,
        0.47698851934187,
        -0.5811665017654289,
        2.1348688281052235,
        -2.0583530844015705,
        0.13619126368091036,
        0.08516515891763347,
        2.7655507248946836,
        -0.9241182940001221,
        2.451761739631939,
        -0.10067368537132838,
        0.7688541096438792,
        -0.2963619897625798,
        -0.5805905851882671,
        -2.0478250672652236,
        -1.810904708610536,
        -0.22732396593292983,
        2.4688242611332623,
        -1.4737295167382356,
        -1.9258552063404837,
        0.17097162021815035,
        0.20802341123866186,
        -0.9103288410330037,
        -0.8705782206627201,
        1.3251954067808753,
        -2.0095332329637134,
        -2.2738067327990428,
        1.2967476953654389,
        -0.786798056089024,
        0.7295279587959976,
        -0.654995953407127,
        -0.8787936888033339,
        1.2825000436371305,
        1.2903940535124843,
        1.269560052464065,
        0.3214322627337468,
        0.7847514547464581,
        1.1489709376314536,
        0.1419073529781065,
        0.34369766910675,
        0.39307320719138233,
        -1.1301419461318947,
        0.5363824730014987,
        -1.731713764620237,
        1.5747479345315025,
        0.6512804711844062,
        1.4513006211953314,
        0.8013017805594614,
        0.9742884214731942,
        0.3100656055578237,
        -0.2567165634045941,
        0.5774986324085216,
        -1.8096069388767417
      ],
      [
        0.22207845962712644,
        1.1307719436165373,
        -2.1397774711765476,
        -0.012364659011608926,
        1.2050092495315203,
        -2.0862091874208715,
        1.1498653320981556,
        0.32278089520249303,
        1.1025337278129326,
        0.9632974522594283,
        -0.07538562858584266,
        -0.4385619253014759,
        -0.2347461795885993,
        0.22065422115113528,
        -0.862406866984037,
        0.8956560530205268,
        1.0834377382340536,
        -1.7591511965255509,
        1.234807562023545,
        -0.9276029168564496,
        0.7840374396901373,
        1.8545186124188007,
        -1.9446924059557822,
        0.03494596698751678,
        0.3309825191057916,
        -0.2740740452494849,
        -1.2283159102321688,
        -0.594928896737527,
        -1.310760489914614,
        -0.6412088906181751,
        -0.025912995877216558,
        0.14791070165645648,
        -1.756781282547977,
        0.6504278062350866,
        -1.6110360690622874,
        -1.919429317291718,
        0.7005825994355024,
        -1.0764927281433896,
        -1.0935667387810277,
        -0.412672073076511,
        -0.38399076046953534,
        0.4085599166426608,
        -0.9587855005339619,
        0.41285102409317975,
